{"learner":{"attributes":{"best_iteration":"9","best_ntree_limit":"10"},"feature_names":["fnlwgt","capital-gain","capital-loss","hours-per-week","age_15","age_20","age_25","age_30","age_35","age_40","age_45","age_50","age_55","age_60","age_65","age_70","age_75","age_80","age_85","workclass_0","workclass_1","workclass_2","workclass_4","workclass_5","workclass_7","workclass_9","education-num_E","education-num_M","education-num_H","education-num_C","education-num_U","education-num_MA","marital-status_ Divorced","marital-status_ Married-AF-spouse","marital-status_ Married-civ-spouse","marital-status_ Married-spouse-absent","marital-status_ Never-married","marital-status_ Separated","marital-status_ Widowed","occupation_0","occupation_1","occupation_2","occupation_4","occupation_5","occupation_6","occupation_8","occupation_9","relationship_ Husband","relationship_ Not-in-family","relationship_ Other-relative","relationship_ Own-child","relationship_ Unmarried","relationship_ Wife","race_ Amer-Indian-Eskimo","race_ Asian-Pac-Islander","race_ Black","race_ Other","race_ White","sex_ Female","sex_ Male","native-country_0","native-country_1","native-country_2","native-country_3","native-country_4","native-country_5","native-country_6","native-country_7","native-country_8"],"feature_types":["int","int","int","int","int","int","int","int","int","int","int","int","int","int","int","int","int","int","int","int","int","int","int","int","int","int","int","int","int","int","int","int","int","int","int","int","int","int","int","int","int","int","int","int","int","int","int","int","int","int","int","int","int","int","int","int","int","int","int","int","int","int","int","int","int","int","int","int","int"],"gradient_booster":{"model":{"gbtree_model_param":{"num_parallel_tree":"1","num_trees":"10","size_leaf_vector":"0"},"tree_info":[0,0,0,0,0,0,0,0,0,0],"trees":[{"base_weights":[-2.5989568E-1,-4.317368E-1,-5.446763E-2,-4.4775915E-1,4.818653E-1,-9.9246815E-2,4.853352E-1,-4.6048442E-1,-2.3295455E-1,1.4763159E-1,-1.25E-1,-1.377064E-1,2.400455E-1,4.8669466E-1,-0E0,-4.632089E-1,1.2244898E-1,-3.2413793E-1,-1.3736264E-2,7.5E-2,-1.0000001E-1,-2.0125628E-1,7.515424E-2,2.0707732E-1,4.5299146E-1,4.880618E-1,-0E0,7.5E-2,-7.5E-2,-4.7790155E-1,-4.0061006E-1,-8.928572E-2,3.8636363E-1,-3.3178654E-1,1.20000005E-1,1.16883114E-1,-1.08490564E-1,-2.6116183E-1,-8.477082E-2,4.866989E-2,4.1153845E-1,-6.081081E-2,2.3550725E-1,4.6120688E-1,-7.5E-2,4.8943663E-1,-0E0,7.5E-2,-7.5E-2,-1.4553766E-1,-1.3303633E-1,-1.2975286E-1,-8.115385E-2,2.25E-2,-1.3333334E-1,1.425E-1,-1.0000001E-1,-1.0261283E-1,2.727273E-2,-3.5714288E-3,7.916667E-2,-8.275862E-2,-1.34615395E-2,-8.2272016E-2,4.0157482E-2,-3.0015433E-2,7.848838E-2,-5.7055216E-2,2.2419572E-2,1.4859813E-1,6.2500006E-3,-1.3333334E-1,-2.2727274E-3,7.4115045E-2,-1.1538462E-1,1.4833334E-1,1.0000001E-1,1.4887725E-1,1.11627914E-1,7.5E-2,-7.5E-2],"categories":[],"categories_nodes":[],"categories_segments":[],"categories_sizes":[],"default_left":[0,0,0,0,0,0,0,0,0,0,0,0,0,0,0,0,0,0,0,0,0,0,0,0,0,0,0,0,0,0,0,0,0,0,0,0,0,0,0,0,0,0,0,0,0,0,0,0,0,0,0,0,0,0,0,0,0,0,0,0,0,0,0,0,0,0,0,0,0,0,0,0,0,0,0,0,0,0,0,0,0],"id":0,"left_children":[1,3,5,7,9,11,13,15,17,-1,19,21,23,25,27,29,31,33,35,-1,-1,37,39,41,43,45,47,-1,-1,49,51,53,55,57,-1,59,61,63,65,67,69,71,73,75,-1,77,79,-1,-1,-1,-1,-1,-1,-1,-1,-1,-1,-1,-1,-1,-1,-1,-1,-1,-1,-1,-1,-1,-1,-1,-1,-1,-1,-1,-1,-1,-1,-1,-1,-1,-1],"loss_changes":[7.241411E2,1.637229E2,2.2593484E2,2.990039E1,1.2608681E0,1.12646286E2,4.7242737E-1,1.6515137E1,1.2308811E1,0E0,3.9583334E-1,1.04878494E2,6.07716E0,4.7506714E-1,2.5E-1,9.295654E0,2.7726116E0,2.5420265E0,2.265249E0,0E0,0E0,4.16373E1,1.5864567E1,5.8253593E0,7.9102135E-1,4.777527E-1,2.5E-1,0E0,0E0,1.8625488E0,8.046112E0,1.6670635E0,1.5617423E0,1.8995895E0,0E0,1.4609487E0,1.1163063E0,2.0401703E1,1.076605E1,1.0310387E1,4.2454453E0,1.507917E0,5.03405E0,3.2820892E-1,0E0,3.8362122E-1,2.5E-1,0E0,0E0,0E0,0E0,0E0,0E0,0E0,0E0,0E0,0E0,0E0,0E0,0E0,0E0,0E0,0E0,0E0,0E0,0E0,0E0,0E0,0E0,0E0,0E0,0E0,0E0,0E0,0E0,0E0,0E0,0E0,0E0,0E0,0E0],"parents":[2147483647,0,0,1,1,2,2,3,3,4,4,5,5,6,6,7,7,8,8,10,10,11,11,12,12,13,13,14,14,15,15,16,16,17,17,18,18,21,21,22,22,23,23,24,24,25,25,26,26,29,29,30,30,31,31,32,32,33,33,35,35,36,36,37,37,38,38,39,39,40,40,41,41,42,42,43,43,45,45,46,46],"right_children":[2,4,6,8,10,12,14,16,18,-1,20,22,24,26,28,30,32,34,36,-1,-1,38,40,42,44,46,48,-1,-1,50,52,54,56,58,-1,60,62,64,66,68,70,72,74,76,-1,78,80,-1,-1,-1,-1,-1,-1,-1,-1,-1,-1,-1,-1,-1,-1,-1,-1,-1,-1,-1,-1,-1,-1,-1,-1,-1,-1,-1,-1,-1,-1,-1,-1,-1,-1],"split_conditions":[1E0,7.298E3,5.06E3,1E0,1E0,1E0,1E0,2.231E3,4.9E1,1.4763159E-1,1.43582E5,1E0,1.651E3,1E0,8.8368E4,1E0,2.352E3,2.267E3,1E0,7.5E-2,-1.0000001E-1,1E0,1.741E3,3.1E1,2.444E3,1E0,1.9589E5,7.5E-2,-7.5E-2,4.2E1,4.9E1,2.267E3,3.175E3,4.687E3,1.20000005E-1,1.83425E5,1.00734E5,1.741E3,1.848E3,3.1E1,1.98E3,1E0,3.137E3,1.98E3,-7.5E-2,1E0,1.21012E5,7.5E-2,-7.5E-2,-1.4553766E-1,-1.3303633E-1,-1.2975286E-1,-8.115385E-2,2.25E-2,-1.3333334E-1,1.425E-1,-1.0000001E-1,-1.0261283E-1,2.727273E-2,-3.5714288E-3,7.916667E-2,-8.275862E-2,-1.34615395E-2,-8.2272016E-2,4.0157482E-2,-3.0015433E-2,7.848838E-2,-5.7055216E-2,2.2419572E-2,1.4859813E-1,6.2500006E-3,-1.3333334E-1,-2.2727274E-3,7.4115045E-2,-1.1538462E-1,1.4833334E-1,1.0000001E-1,1.4887725E-1,1.11627914E-1,7.5E-2,-7.5E-2],"split_indices":[34,1,1,31,4,31,18,2,3,0,0,30,2,26,0,30,2,2,45,0,0,29,2,3,2,63,0,0,0,3,3,2,2,1,0,0,0,2,2,3,2,65,1,2,0,13,0,0,0,0,0,0,0,0,0,0,0,0,0,0,0,0,0,0,0,0,0,0,0,0,0,0,0,0,0,0,0,0,0,0,0],"split_type":[0,0,0,0,0,0,0,0,0,0,0,0,0,0,0,0,0,0,0,0,0,0,0,0,0,0,0,0,0,0,0,0,0,0,0,0,0,0,0,0,0,0,0,0,0,0,0,0,0,0,0,0,0,0,0,0,0,0,0,0,0,0,0,0,0,0,0,0,0,0,0,0,0,0,0,0,0,0,0,0,0],"sum_hessian":[2.0513E4,1.1169E4,9.344E3,1.0977E4,1.92E2,8.629E3,7.15E2,1.0362E4,6.15E2,1.89E2,3E0,7.751E3,8.78E2,7.13E2,2E0,1.0314E4,4.8E1,4.34E2,1.81E2,1E0,2E0,5.969E3,1.782E3,7.62E2,1.16E2,7.11E2,2E0,1E0,1E0,8.348E3,1.966E3,2.7E1,2.1E1,4.3E2,4E0,7.6E1,1.05E2,3.941E3,2.028E3,1.653E3,1.29E2,7.3E1,6.89E2,1.15E2,1E0,7.09E2,2E0,1E0,1E0,6.89E3,1.458E3,1.577E3,3.89E2,1.9E1,8E0,1.9E1,2E0,4.2E2,1E1,4.1E1,3.5E1,2.8E1,7.7E1,3.815E3,1.26E2,1.943E3,8.5E1,1.62E2,1.491E3,1.06E2,2.3E1,8E0,6.5E1,6.77E2,1.2E1,8.9E1,2.6E1,6.67E2,4.2E1,1E0,1E0],"tree_param":{"num_deleted":"0","num_feature":"69","num_nodes":"81","size_leaf_vector":"0"}},{"base_weights":[-1.819283E-1,-3.0225256E-1,-3.8086288E-2,-3.1348002E-1,3.3794108E-1,-6.94585E-2,3.4009844E-1,-3.223929E-1,-1.6302916E-1,3.452507E-1,-9.3749985E-2,-9.637814E-2,1.6802783E-1,3.4115458E-1,-2.4625758E-2,-3.2429367E-1,8.431974E-2,-2.4557017E-1,-2.9997066E-2,2.2942583E-1,1.0512325E-1,6.3750006E-2,-8E-2,-1.4087832E-1,5.2675385E-2,1.7695102E-1,-2.240707E-1,3.4211287E-1,-0E0,5.266841E-2,-6.3750006E-2,-3.3489797E-1,-2.79791E-1,-6.645832E-2,2.7238637E-1,-3.275598E-1,-2.0262478E-1,7.851481E-3,-2.7270967E-1,9.513948E-2,-9.7144745E-2,-1.6118623E-1,3.8483903E-2,9.938607E-3,1.6511118E-1,1.8793248E-1,-1.5606701E-1,-3.452892E-1,1.1632064E-1,3.430766E-1,-0E0,6.3750006E-2,-6.3750006E-2,-1.0079279E-1,-3.5837382E-2,-9.322643E-2,-6.1178334E-2,1.1460001E-1,-4.7135416E-2,1.018875E-1,-8E-2,-1.0226197E-1,6.532088E-4,-6.488877E-2,1.18181825E-1,-5.5584526E-3,7.23378E-2,2.7376372E-2,-1.0304709E-1,-8.943329E-2,-4.1616492E-2,2.402262E-2,-2.210048E-2,-1.811379E-3,7.567749E-2,6.1834965E-2,-5.2191527E-3,4.974073E-2,9.78158E-2,-2.794045E-3,-1.2578762E-1,-1.1807201E-1,-3.4234326E-2,1.1003659E-1,-7.692307E-2,1.0431411E-1,7.891832E-2,6.3750006E-2,-6.3750006E-2],"categories":[],"categories_nodes":[],"categories_segments":[],"categories_sizes":[],"default_left":[0,0,0,0,0,0,0,0,0,0,0,0,0,0,0,0,0,0,0,0,0,0,0,0,0,0,0,0,0,0,0,0,0,0,0,0,0,0,0,0,0,0,0,0,0,0,0,0,0,0,0,0,0,0,0,0,0,0,0,0,0,0,0,0,0,0,0,0,0,0,0,0,0,0,0,0,0,0,0,0,0,0,0,0,0,0,0,0,0],"id":1,"left_children":[1,3,5,7,9,11,13,15,17,19,21,23,25,27,29,31,33,35,37,39,-1,-1,-1,41,43,45,47,49,51,-1,-1,53,55,57,59,61,63,65,67,-1,-1,69,71,73,75,77,79,81,83,85,87,-1,-1,-1,-1,-1,-1,-1,-1,-1,-1,-1,-1,-1,-1,-1,-1,-1,-1,-1,-1,-1,-1,-1,-1,-1,-1,-1,-1,-1,-1,-1,-1,-1,-1,-1,-1,-1,-1],"loss_changes":[3.5503827E2,8.039313E1,1.108973E2,1.4668335E1,6.413765E-1,5.518818E1,2.8419495E-1,8.038696E0,6.7566833E0,3.3164978E-2,2.6848957E-1,5.142572E1,3.1150684E0,2.3342896E-1,1.5013681E-1,4.774048E0,1.4075621E0,1.271637E0,2.179299E0,6.364393E-1,0E0,0E0,0E0,2.1751762E1,8.565929E0,3.1743717E0,8.6539876E-1,2.3474121E-1,1.80625E-1,0E0,0E0,1.8933105E0,4.6135254E0,1.1984181E0,8.8796103E-1,5.6704235E-1,2.14044E0,1.2721301E0,8.557162E-1,0E0,0E0,1.6455032E1,2.8419611E0,5.0072813E0,3.6781425E0,2.4920902E0,1.0777125E0,1.2251878E-1,6.541913E-1,1.7196655E-1,1.80625E-1,0E0,0E0,0E0,0E0,0E0,0E0,0E0,0E0,0E0,0E0,0E0,0E0,0E0,0E0,0E0,0E0,0E0,0E0,0E0,0E0,0E0,0E0,0E0,0E0,0E0,0E0,0E0,0E0,0E0,0E0,0E0,0E0,0E0,0E0,0E0,0E0,0E0,0E0],"parents":[2147483647,0,0,1,1,2,2,3,3,4,4,5,5,6,6,7,7,8,8,9,9,10,10,11,11,12,12,13,13,14,14,15,15,16,16,17,17,18,18,19,19,23,23,24,24,25,25,26,26,27,27,28,28,31,31,32,32,33,33,34,34,35,35,36,36,37,37,38,38,41,41,42,42,43,43,44,44,45,45,46,46,47,47,48,48,49,49,50,50],"right_children":[2,4,6,8,10,12,14,16,18,20,22,24,26,28,30,32,34,36,38,40,-1,-1,-1,42,44,46,48,50,52,-1,-1,54,56,58,60,62,64,66,68,-1,-1,70,72,74,76,78,80,82,84,86,88,-1,-1,-1,-1,-1,-1,-1,-1,-1,-1,-1,-1,-1,-1,-1,-1,-1,-1,-1,-1,-1,-1,-1,-1,-1,-1,-1,-1,-1,-1,-1,-1,-1,-1,-1,-1,-1,-1],"split_conditions":[1E0,7.298E3,5.06E3,1E0,1E0,1E0,1E0,2.231E3,4.4E1,7.688E3,1.43582E5,1E0,1.14E2,1E0,1.26132E5,4.3E1,2.352E3,4E1,1E0,7.443E3,1.0512325E-1,6.3750006E-2,-8E-2,1E0,1E0,1E0,1E0,1E0,8.8368E4,5.266841E-2,-6.3750006E-2,4.687E3,1E0,2.238E3,3.175E3,3.4088E5,4.687E3,1E0,1E0,9.513948E-2,-9.7144745E-2,3.8E1,1E0,1.741E3,1E0,1.651E3,1.87702E5,1E0,4.416E3,1E0,1.21012E5,6.3750006E-2,-6.3750006E-2,-1.0079279E-1,-3.5837382E-2,-9.322643E-2,-6.1178334E-2,1.1460001E-1,-4.7135416E-2,1.018875E-1,-8E-2,-1.0226197E-1,6.532088E-4,-6.488877E-2,1.18181825E-1,-5.5584526E-3,7.23378E-2,2.7376372E-2,-1.0304709E-1,-8.943329E-2,-4.1616492E-2,2.402262E-2,-2.210048E-2,-1.811379E-3,7.567749E-2,6.1834965E-2,-5.2191527E-3,4.974073E-2,9.78158E-2,-2.794045E-3,-1.2578762E-1,-1.1807201E-1,-3.4234326E-2,1.1003659E-1,-7.692307E-2,1.0431411E-1,7.891832E-2,6.3750006E-2,-6.3750006E-2],"split_indices":[34,1,1,31,4,31,49,2,3,1,0,30,1,18,0,3,2,3,6,1,0,0,0,46,46,42,11,63,0,0,0,1,30,2,2,0,1,11,65,0,0,3,23,2,23,2,0,13,1,13,0,0,0,0,0,0,0,0,0,0,0,0,0,0,0,0,0,0,0,0,0,0,0,0,0,0,0,0,0,0,0,0,0,0,0,0,0,0,0],"split_type":[0,0,0,0,0,0,0,0,0,0,0,0,0,0,0,0,0,0,0,0,0,0,0,0,0,0,0,0,0,0,0,0,0,0,0,0,0,0,0,0,0,0,0,0,0,0,0,0,0,0,0,0,0,0,0,0,0,0,0,0,0,0,0,0,0,0,0,0,0,0,0,0,0,0,0,0,0,0,0,0,0,0,0,0,0,0,0,0,0],"sum_hessian":[2.0513E4,1.1169E4,9.344E3,1.0977E4,1.92E2,8.629E3,7.15E2,1.0362E4,6.15E2,1.89E2,3E0,7.751E3,8.78E2,7.13E2,2E0,1.0314E4,4.8E1,3.79E2,2.36E2,1E1,1.79E2,1E0,2E0,5.969E3,1.782E3,8.59E2,1.9E1,7.11E2,2E0,1E0,1E0,8.324E3,1.99E3,2.7E1,2.1E1,1.28E2,2.51E2,2.05E2,3.1E1,9E0,1E0,5.362E3,6.07E2,1.292E3,4.9E2,8.32E2,2.7E1,1.4E1,5E0,7.09E2,2E0,1E0,1E0,8.282E3,4.2E1,1.411E3,5.79E2,4E0,2.3E1,1.9E1,2E0,1.23E2,5E0,2.46E2,5E0,1.85E2,2E1,5E0,2.6E1,7.54E2,4.608E3,4.43E2,1.64E2,1.213E3,7.9E1,4E2,9E1,7.19E2,1.13E2,1.8E1,9E0,1.1E1,3E0,3E0,2E0,6.67E2,4.2E1,1E0,1E0],"tree_param":{"num_deleted":"0","num_feature":"69","num_nodes":"89","size_leaf_vector":"0"}},{"base_weights":[-1.2735462E-1,-2.1159218E-1,-2.6652563E-2,-2.194596E-1,2.3700887E-1,-4.8632413E-2,2.3830937E-1,-2.2569449E-1,-1.1421329E-1,2.4221823E-1,-6.96875E-2,-9.703947E-2,3.1569313E-2,2.3906484E-1,-2.093189E-2,-2.2703378E-1,6.0847323E-2,-1.7202626E-1,-2.1035463E-2,7.3909774E-2,1.6016376E-1,5.41875E-2,-6.4E-2,-1.2333243E-1,9.831403E-2,1.6435989E-3,1.4763008E-1,2.3973638E-1,-9.934108E-9,4.4768155E-2,-5.4187503E-2,-2.3527251E-1,-1.9194883E-1,-4.4111375E-2,1.9166534E-1,-1.769354E-1,1.0009997E-1,-1.6596815E-1,1.1031926E-2,-8.2573034E-2,6.743051E-2,-1.3524435E-1,1.8121018E-1,-1.11407E-1,1.4406566E-1,-2.6525794E-2,1.1404609E-1,1.6470481E-1,-1.035854E-1,2.404117E-1,-9.934108E-9,5.41875E-2,-5.4187503E-2,-6.53579E-2,-7.4092075E-2,-5.112774E-2,-7.8626916E-2,-1.0887947E-1,1.7800942E-2,7.2849564E-2,-6.4E-2,-5.4902844E-2,6.8744056E-2,-6.046699E-2,1.1271913E-1,-3.420397E-2,2.0235628E-2,-3.645992E-2,-1.0997077E-1,1.0091335E-1,-5.2421503E-2,-6.579523E-2,2.6612217E-2,-2.1137316E-2,5.3660404E-2,-1.937273E-2,2.3718804E-2,4.5676768E-2,6.3117594E-3,5.1555242E-2,-1.0280954E-1,-4.2958893E-2,6.7829E-2,7.291955E-2,5.2978765E-2,5.41875E-2,-5.4187503E-2],"categories":[],"categories_nodes":[],"categories_segments":[],"categories_sizes":[],"default_left":[0,0,0,0,0,0,0,0,0,0,0,0,0,0,0,0,0,0,0,0,0,0,0,0,0,0,0,0,0,0,0,0,0,0,0,0,0,0,0,0,0,0,0,0,0,0,0,0,0,0,0,0,0,0,0,0,0,0,0,0,0,0,0,0,0,0,0,0,0,0,0,0,0,0,0,0,0,0,0,0,0,0,0,0,0,0,0],"id":2,"left_children":[1,3,5,7,9,11,13,15,17,19,21,23,25,27,29,31,33,35,37,-1,39,-1,-1,41,43,45,47,49,51,-1,-1,53,55,57,59,61,-1,63,65,-1,-1,67,69,71,73,75,77,79,81,83,85,-1,-1,-1,-1,-1,-1,-1,-1,-1,-1,-1,-1,-1,-1,-1,-1,-1,-1,-1,-1,-1,-1,-1,-1,-1,-1,-1,-1,-1,-1,-1,-1,-1,-1,-1,-1],"loss_changes":[1.7401248E2,3.947458E1,5.4435215E1,7.1779785E0,3.2523346E-1,3.3507565E1,1.4523697E-1,3.9907837E0,3.314703E0,2.5204659E-2,1.8235871E-1,2.7656353E1,1.1284189E1,1.1462402E-1,1.0847385E-1,2.9364624E0,6.812485E-1,1.0023937E0,1.1033151E0,0E0,3.9941776E-1,0E0,0E0,1.7234245E1,6.1473045E0,8.18477E0,2.873826E0,1.1527252E-1,1.3050157E-1,0E0,0E0,1.6473083E0,2.9248047E0,9.450103E-1,5.076964E-1,9.718361E-1,0E0,9.046948E-1,1.3834287E0,0E0,0E0,1.4437714E1,9.945251E0,2.5028143E0,3.93221E0,8.309564E0,1.8376522E0,2.3214512E0,5.9391326E-1,7.7301025E-2,1.3050157E-1,0E0,0E0,0E0,0E0,0E0,0E0,0E0,0E0,0E0,0E0,0E0,0E0,0E0,0E0,0E0,0E0,0E0,0E0,0E0,0E0,0E0,0E0,0E0,0E0,0E0,0E0,0E0,0E0,0E0,0E0,0E0,0E0,0E0,0E0,0E0,0E0],"parents":[2147483647,0,0,1,1,2,2,3,3,4,4,5,5,6,6,7,7,8,8,9,9,10,10,11,11,12,12,13,13,14,14,15,15,16,16,17,17,18,18,20,20,23,23,24,24,25,25,26,26,27,27,28,28,31,31,32,32,33,33,34,34,35,35,37,37,38,38,41,41,42,42,43,43,44,44,45,45,46,46,47,47,48,48,49,49,50,50],"right_children":[2,4,6,8,10,12,14,16,18,20,22,24,26,28,30,32,34,36,38,-1,40,-1,-1,42,44,46,48,50,52,-1,-1,54,56,58,60,62,-1,64,66,-1,-1,68,70,72,74,76,78,80,82,84,86,-1,-1,-1,-1,-1,-1,-1,-1,-1,-1,-1,-1,-1,-1,-1,-1,-1,-1,-1,-1,-1,-1,-1,-1,-1,-1,-1,-1,-1,-1,-1,-1,-1,-1,-1,-1],"split_conditions":[1E0,7.298E3,5.06E3,1E0,1E0,4.1E1,1E0,2.231E3,4.4E1,1E0,1.43582E5,1E0,1E0,1E0,1.26132E5,1E0,2.352E3,2.267E3,1E0,7.3909774E-2,7.688E3,5.41875E-2,-6.4E-2,1.741E3,3.1E1,1E0,6.6E1,1E0,8.8368E4,4.4768155E-2,-5.4187503E-2,1E0,1E0,1E0,3.175E3,1E0,1.0009997E-1,3.04857E5,1.10538E5,-8.2573034E-2,6.743051E-2,1E0,1.98E3,1E0,1E0,1E0,5.9E1,1E0,1E0,1E0,1.21012E5,5.41875E-2,-5.4187503E-2,-6.53579E-2,-7.4092075E-2,-5.112774E-2,-7.8626916E-2,-1.0887947E-1,1.7800942E-2,7.2849564E-2,-6.4E-2,-5.4902844E-2,6.8744056E-2,-6.046699E-2,1.1271913E-1,-3.420397E-2,2.0235628E-2,-3.645992E-2,-1.0997077E-1,1.0091335E-1,-5.2421503E-2,-6.579523E-2,2.6612217E-2,-2.1137316E-2,5.3660404E-2,-1.937273E-2,2.3718804E-2,4.5676768E-2,6.3117594E-3,5.1555242E-2,-1.0280954E-1,-4.2958893E-2,6.7829E-2,7.291955E-2,5.2978765E-2,5.41875E-2,-5.4187503E-2],"split_indices":[34,1,1,31,4,3,49,2,3,37,0,45,46,18,0,30,2,2,48,0,1,0,0,2,3,45,3,63,0,0,0,36,5,22,2,68,0,0,0,0,0,5,2,58,57,43,3,5,67,14,0,0,0,0,0,0,0,0,0,0,0,0,0,0,0,0,0,0,0,0,0,0,0,0,0,0,0,0,0,0,0,0,0,0,0,0,0],"split_type":[0,0,0,0,0,0,0,0,0,0,0,0,0,0,0,0,0,0,0,0,0,0,0,0,0,0,0,0,0,0,0,0,0,0,0,0,0,0,0,0,0,0,0,0,0,0,0,0,0,0,0,0,0,0,0,0,0,0,0,0,0,0,0,0,0,0,0,0,0,0,0,0,0,0,0,0,0,0,0,0,0,0,0,0,0,0,0],"sum_hessian":[2.0513E4,1.1169E4,9.344E3,1.0977E4,1.92E2,8.629E3,7.15E2,1.0362E4,6.15E2,1.89E2,3E0,5.381E3,3.248E3,7.13E2,2E0,1.0314E4,4.8E1,3.79E2,2.36E2,1.78E2,1.1E1,1E0,2E0,4.743E3,6.38E2,2.583E3,6.65E2,7.11E2,2E0,1E0,1E0,8.348E3,1.966E3,2.7E1,2.1E1,3.76E2,3E0,4.2E1,1.94E2,1E0,1E1,4.565E3,1.78E2,1.14E2,5.24E2,2.066E3,5.17E2,6.23E2,4.2E1,7.09E2,2E0,1E0,1E0,3.363E3,4.985E3,1.507E3,4.59E2,6E0,2.1E1,1.9E1,2E0,3.71E2,5E0,4E1,2E0,6E1,1.34E2,4.311E3,2.54E2,1.24E2,5.4E1,7.4E1,4E1,7.3E1,4.51E2,1.519E3,5.47E2,3.66E2,1.51E2,6.15E2,8E0,3.8E1,4E0,6.78E2,3.1E1,1E0,1E0],"tree_param":{"num_deleted":"0","num_feature":"69","num_nodes":"87","size_leaf_vector":"0"}},{"base_weights":[-8.915352E-2,-1.4812797E-1,-1.8652312E-2,-1.5511866E-1,1.2939435E-1,-3.4051333E-2,1.6697924E-1,-1.6087957E-1,-9.672904E-2,5.702437E-1,9.444755E-2,-2.0675398E-2,-2.253095E-1,1.7006335E-1,1.1475431E-1,-1.6812298E-1,-1.08476125E-1,-1.02789454E-1,2.752141E-1,2.0409043E-1,1.0804192E-1,-1.2328566E-1,1.6615988E-1,-4.2614625E-3,-1.6264299E-1,-2.5206593E-1,-1.5964007E-1,6.1383564E-2,1.721079E-1,1.5759432E-1,-1.5269318E-1,-1.68667E-1,1.3803148E-1,-5.159115E-2,-1.4701337E-1,-5.976183E-2,-1.4498755E-1,3.1799406E-1,-5.4972764E-2,9.212915E-2,-2.162859E-1,1.6986208E-1,-5.1234365E-2,7.5452323E-3,-2.2900203E-1,-1.755596E-1,1.05821095E-1,-2.560306E-1,5.029036E-2,-1.8654932E-1,3.504526E-2,4.814651E-2,-1.4910272E-1,1.7358647E-1,5.849427E-2,2.0120463E-1,-8.29707E-2,-5.214732E-2,-4.3534294E-2,5.829651E-2,-5.12E-2,-2.2471778E-2,3.5879903E-2,-4.7649883E-2,3.2742752E-3,-2.4911767E-2,2.2649577E-2,-3.4432337E-2,-5.1407926E-2,4.1121658E-2,1.0554056E-1,-6.809805E-2,1.797562E-1,-7.141994E-2,1.1130884E-1,3.2235235E-2,5.1819727E-2,4.6059377E-2,-5.12E-2,5.8318484E-3,-6.4045765E-2,-7.042012E-2,2.8317636E-2,-6.154875E-2,-2.1613099E-2,7.773325E-2,-1.0938905E-1,-7.79459E-2,9.689976E-3,7.3578395E-2,-6.793031E-2,-6.315936E-2,-1.2946229E-3,-2.1610511E-2,7.784897E-2,-1.1132327E-1,3.67719E-2,5.229784E-2,3.0536773E-3,4.6370428E-2,-1.2092552E-1,6.8513356E-2,1.7965931E-2,-1.5269318E-1,5.6768205E-2],"categories":[],"categories_nodes":[],"categories_segments":[],"categories_sizes":[],"default_left":[0,0,0,0,0,0,0,0,0,0,0,0,0,0,0,0,0,0,0,0,0,0,0,0,0,0,0,0,0,0,0,0,0,0,0,0,0,0,0,0,0,0,0,0,0,0,0,0,0,0,0,0,0,0,0,0,0,0,0,0,0,0,0,0,0,0,0,0,0,0,0,0,0,0,0,0,0,0,0,0,0,0,0,0,0,0,0,0,0,0,0,0,0,0,0,0,0,0,0,0,0,0,0,0,0],"id":3,"left_children":[1,3,5,7,9,11,13,15,17,19,21,23,25,27,29,31,33,35,37,-1,-1,39,41,43,45,47,49,51,53,55,-1,57,59,61,63,65,67,69,-1,71,73,75,77,79,81,83,85,87,89,91,93,-1,95,97,99,101,103,-1,-1,-1,-1,-1,-1,-1,-1,-1,-1,-1,-1,-1,-1,-1,-1,-1,-1,-1,-1,-1,-1,-1,-1,-1,-1,-1,-1,-1,-1,-1,-1,-1,-1,-1,-1,-1,-1,-1,-1,-1,-1,-1,-1,-1,-1,-1,-1],"loss_changes":[8.528975E1,2.1690674E1,2.6718777E1,3.6495972E0,4.182868E0,2.2073095E1,9.580803E-2,3.745697E0,2.2395916E0,2.1746731E-1,4.017709E0,1.879741E1,9.5075417E-1,1.3920021E-1,1.2292004E0,1.473999E0,2.6383896E0,1.745286E0,3.7207413E-1,0E0,0E0,1.3020784E0,1.6403627E-1,1.9191427E1,2.91753E0,4.911728E-1,8.7618446E-1,3.1597203E-1,1.0088539E-1,4.468298E-1,0E0,1.0309601E0,3.1119114E-1,1.9606923E0,1.3438454E0,1.5175536E0,3.6836624E-1,4.352629E-2,0E0,3.3722866E0,6.639726E-1,1.5476704E-2,1.2402516E-1,1.807065E1,6.9130707E-1,2.4305878E0,2.9069777E0,4.3884087E-1,3.7925532E-1,6.3715696E-1,5.234134E-1,0E0,3.4700993E-1,7.703018E-2,5.0576097E-1,1.2072551E-1,9.0801936E-1,0E0,0E0,0E0,0E0,0E0,0E0,0E0,0E0,0E0,0E0,0E0,0E0,0E0,0E0,0E0,0E0,0E0,0E0,0E0,0E0,0E0,0E0,0E0,0E0,0E0,0E0,0E0,0E0,0E0,0E0,0E0,0E0,0E0,0E0,0E0,0E0,0E0,0E0,0E0,0E0,0E0,0E0,0E0,0E0,0E0,0E0,0E0,0E0],"parents":[2147483647,0,0,1,1,2,2,3,3,4,4,5,5,6,6,7,7,8,8,9,9,10,10,11,11,12,12,13,13,14,14,15,15,16,16,17,17,18,18,21,21,22,22,23,23,24,24,25,25,26,26,27,27,28,28,29,29,31,31,32,32,33,33,34,34,35,35,36,36,37,37,39,39,40,40,41,41,42,42,43,43,44,44,45,45,46,46,47,47,48,48,49,49,50,50,52,52,53,53,54,54,55,55,56,56],"right_children":[2,4,6,8,10,12,14,16,18,20,22,24,26,28,30,32,34,36,38,-1,-1,40,42,44,46,48,50,52,54,56,-1,58,60,62,64,66,68,70,-1,72,74,76,78,80,82,84,86,88,90,92,94,-1,96,98,100,102,104,-1,-1,-1,-1,-1,-1,-1,-1,-1,-1,-1,-1,-1,-1,-1,-1,-1,-1,-1,-1,-1,-1,-1,-1,-1,-1,-1,-1,-1,-1,-1,-1,-1,-1,-1,-1,-1,-1,-1,-1,-1,-1,-1,-1,-1,-1,-1,-1],"split_conditions":[1E0,4.687E3,5.06E3,1E0,4.865E3,1E0,1E0,1E0,2.206E3,1E0,7.298E3,1E0,4.1E1,2.5E1,1E0,2.352E3,1E0,1E0,1E0,2.0409043E-1,1.0804192E-1,5.013E3,1E0,1E0,1.741E3,1E0,1E0,1.82752E5,1E0,2.66983E5,-1.5269318E-1,1E0,3.004E3,1E0,1E0,5.3E1,1E0,1E0,-5.4972764E-2,4.931E3,1E0,7.688E3,1.43582E5,1E0,6.9E1,1E0,1.98E3,1E0,1E0,1E0,5.5E1,4.814651E-2,2.13258E5,8.5E1,2.56474E5,1E0,2.93196E5,-5.214732E-2,-4.3534294E-2,5.829651E-2,-5.12E-2,-2.2471778E-2,3.5879903E-2,-4.7649883E-2,3.2742752E-3,-2.4911767E-2,2.2649577E-2,-3.4432337E-2,-5.1407926E-2,4.1121658E-2,1.0554056E-1,-6.809805E-2,1.797562E-1,-7.141994E-2,1.1130884E-1,3.2235235E-2,5.1819727E-2,4.6059377E-2,-5.12E-2,5.8318484E-3,-6.4045765E-2,-7.042012E-2,2.8317636E-2,-6.154875E-2,-2.1613099E-2,7.773325E-2,-1.0938905E-1,-7.79459E-2,9.689976E-3,7.3578395E-2,-6.793031E-2,-6.315936E-2,-1.2946229E-3,-2.1610511E-2,7.784897E-2,-1.1132327E-1,3.67719E-2,5.229784E-2,3.0536773E-3,4.6370428E-2,-1.2092552E-1,6.8513356E-2,1.7965931E-2,-1.5269318E-1,5.6768205E-2],"split_indices":[34,1,1,46,1,27,13,45,2,31,1,6,3,3,42,2,58,36,25,0,0,1,4,5,2,67,13,0,27,0,0,43,2,8,11,3,58,48,0,1,18,1,0,39,3,30,2,25,7,46,3,0,0,3,0,29,0,0,0,0,0,0,0,0,0,0,0,0,0,0,0,0,0,0,0,0,0,0,0,0,0,0,0,0,0,0,0,0,0,0,0,0,0,0,0,0,0,0,0,0,0,0,0,0,0],"split_type":[0,0,0,0,0,0,0,0,0,0,0,0,0,0,0,0,0,0,0,0,0,0,0,0,0,0,0,0,0,0,0,0,0,0,0,0,0,0,0,0,0,0,0,0,0,0,0,0,0,0,0,0,0,0,0,0,0,0,0,0,0,0,0,0,0,0,0,0,0,0,0,0,0,0,0,0,0,0,0,0,0,0,0,0,0,0,0,0,0,0,0,0,0,0,0,0,0,0,0,0,0,0,0,0,0],"sum_hessian":[2.0513E4,1.1169E4,9.344E3,1.0895E4,2.74E2,8.629E3,7.15E2,9.915E3,9.8E2,1.9E1,2.55E2,8.066E3,5.63E2,6.73E2,4.2E1,8.709E3,1.206E3,9.65E2,1.5E1,1.1E1,8E0,6.3E1,1.92E2,7.231E3,8.35E2,3.98E2,1.65E2,1.3E1,6.6E2,4E1,2E0,8.694E3,1.5E1,4.88E2,7.18E2,4.79E2,4.86E2,1.4E1,1E0,1.9E1,4.4E1,1.89E2,3E0,6.871E3,3.6E2,7.97E2,3.8E1,3.93E2,5E0,1.45E2,2E1,9E0,4E0,6.51E2,9E0,3.4E1,6E0,7.127E3,1.567E3,1.3E1,2E0,4.3E2,5.8E1,6.68E2,5E1,4.09E2,7E1,2.29E2,2.57E2,3E0,1.1E1,1.2E1,7E0,4.3E1,1E0,1E1,1.79E2,1E0,2E0,6.521E3,3.5E2,3.54E2,6E0,6.19E2,1.78E2,2.9E1,9E0,3.88E2,5E0,3E0,2E0,1.28E2,1.7E1,1.4E1,6E0,2E0,2E0,6.48E2,3E0,8E0,1E0,2.8E1,6E0,2E0,4E0],"tree_param":{"num_deleted":"0","num_feature":"69","num_nodes":"105","size_leaf_vector":"0"}},{"base_weights":[-6.241073E-2,-1.0365139E-1,-1.3109442E-2,-1.0859371E-1,9.254911E-2,-3.176777E-2,8.5196584E-2,-1.23807915E-1,-9.170073E-2,4.1477722E-1,6.701352E-2,-5.5213198E-2,8.114435E-2,1.0691955E-1,-7.1010212E-3,-1.2446802E-1,3.0963105E-1,-1.0243386E-1,-4.491782E-2,1.4796557E-1,7.923074E-2,-8.3932035E-2,1.1672078E-1,-7.85778E-2,3.9393727E-2,-5.725338E-2,9.517742E-2,1.266764E-1,2.9618973E-2,-2.4251943E-2,1.06084384E-1,-1.2691812E-1,-8.469008E-2,-3.128295E-2,5.339642E-1,-1.0684057E-1,-3.6561977E-2,-2.8212586E-2,-1.602539E-1,7.007332E-2,-1.505137E-1,1.1934583E-1,-3.7149206E-2,-7.0907615E-2,-3.018003E-1,-1.0026492E-1,6.084444E-2,-1.3457899E-1,7.39376E-2,-5.420561E-2,1.0303897E-1,1.3997664E-1,-6.512664E-2,4.9035326E-2,-3.9140785E-1,1.3632326E-1,-3.4877785E-2,-3.8494837E-2,-2.1084024E-2,4.2011812E-3,-3.5650022E-2,2.0271468E-1,-2.6218846E-2,-3.2338265E-2,4.0097766E-2,-1.6454995E-2,3.800245E-2,-3.8111112E-3,-3.5743557E-2,-4.572375E-2,-1.0604151E-1,-4.924013E-2,1.325702E-1,-5.167342E-2,1.2084774E-1,3.6697052E-2,1.9495014E-2,3.9150473E-2,-4.096E-2,-2.5724484E-2,1.0780498E-2,-9.159858E-2,-2.706945E-5,5.6779623E-2,-3.873977E-2,-1.684897E-2,2.4391811E-2,-6.527142E-2,-3.6898472E-3,3.2554336E-2,-9.7467616E-2,8.396344E-2,-2.6526405E-2,3.2192823E-2,-3.7170473E-2,4.387649E-2,-3.8844675E-2,-3.0750781E-2,9.210864E-2,1.375518E-1,1.0373902E-2,-1.3814162E-1,4.48851E-2,-1.5422961E-2,5.9277184E-2],"categories":[],"categories_nodes":[],"categories_segments":[],"categories_sizes":[],"default_left":[0,0,0,0,0,0,0,0,0,0,0,0,0,0,0,0,0,0,0,0,0,0,0,0,0,0,0,0,0,0,0,0,0,0,0,0,0,0,0,0,0,0,0,0,0,0,0,0,0,0,0,0,0,0,0,0,0,0,0,0,0,0,0,0,0,0,0,0,0,0,0,0,0,0,0,0,0,0,0,0,0,0,0,0,0,0,0,0,0,0,0,0,0,0,0,0,0,0,0,0,0,0,0,0,0],"id":4,"left_children":[1,3,5,7,9,11,13,15,17,19,21,23,25,27,29,31,33,35,37,-1,-1,39,41,43,45,47,49,51,53,55,-1,57,59,-1,61,63,65,67,69,71,73,75,77,79,81,83,85,87,89,91,93,95,97,99,101,-1,103,-1,-1,-1,-1,-1,-1,-1,-1,-1,-1,-1,-1,-1,-1,-1,-1,-1,-1,-1,-1,-1,-1,-1,-1,-1,-1,-1,-1,-1,-1,-1,-1,-1,-1,-1,-1,-1,-1,-1,-1,-1,-1,-1,-1,-1,-1,-1,-1],"loss_changes":[4.1708076E1,1.0841431E1,1.7143549E1,2.7890625E0,2.2349827E0,2.079881E1,2.990181E0,1.6779861E0,2.5898895E0,1.06122255E-1,1.9305879E0,1.43820915E1,2.6292868E0,1.8395967E0,1.7717584E0,5.4691315E-1,8.913587E-1,1.2158432E0,1.8566865E0,0E0,0E0,6.667988E-1,8.2389355E-2,8.910927E0,3.8676574E0,1.2780031E0,1.4465523E0,2.4606543E0,2.0383697E0,1.4043797E0,0E0,4.1760254E-1,1.1305277E0,0E0,5.875269E-1,9.175949E-1,7.98046E-1,1.1901586E0,1.309681E-1,1.8142226E0,6.104932E-1,2.2806883E-2,8.446511E-2,8.00251E0,1.8413162E-1,1.4620265E0,2.681241E0,7.990376E-1,6.833981E-1,7.334641E-1,1.1433086E0,1.5398235E0,9.077803E-1,1.3869877E0,4.799143E-1,0E0,1.0401323E0,0E0,0E0,0E0,0E0,0E0,0E0,0E0,0E0,0E0,0E0,0E0,0E0,0E0,0E0,0E0,0E0,0E0,0E0,0E0,0E0,0E0,0E0,0E0,0E0,0E0,0E0,0E0,0E0,0E0,0E0,0E0,0E0,0E0,0E0,0E0,0E0,0E0,0E0,0E0,0E0,0E0,0E0,0E0,0E0,0E0,0E0,0E0,0E0],"parents":[2147483647,0,0,1,1,2,2,3,3,4,4,5,5,6,6,7,7,8,8,9,9,10,10,11,11,12,12,13,13,14,14,15,15,16,16,17,17,18,18,21,21,22,22,23,23,24,24,25,25,26,26,27,27,28,28,29,29,31,31,32,32,34,34,35,35,36,36,37,37,38,38,39,39,40,40,41,41,42,42,43,43,44,44,45,45,46,46,47,47,48,48,49,49,50,50,51,51,52,52,53,53,54,54,56,56],"right_children":[2,4,6,8,10,12,14,16,18,20,22,24,26,28,30,32,34,36,38,-1,-1,40,42,44,46,48,50,52,54,56,-1,58,60,-1,62,64,66,68,70,72,74,76,78,80,82,84,86,88,90,92,94,96,98,100,102,-1,104,-1,-1,-1,-1,-1,-1,-1,-1,-1,-1,-1,-1,-1,-1,-1,-1,-1,-1,-1,-1,-1,-1,-1,-1,-1,-1,-1,-1,-1,-1,-1,-1,-1,-1,-1,-1,-1,-1,-1,-1,-1,-1,-1,-1,-1,-1,-1,-1],"split_conditions":[1E0,4.687E3,1E0,1E0,4.865E3,1E0,1E0,1E0,5E1,1E0,7.298E3,1E0,3.1E1,1E0,1.719E3,1E0,2.6E1,1E0,1E0,1.4796557E-1,7.923074E-2,5.013E3,1E0,1E0,4E1,1E0,4.5795E4,1E0,1E0,2.9393E4,1.06084384E-1,1E0,1E0,-3.128295E-2,1E0,1E0,4.2E1,1E0,1E0,4.931E3,1E0,1E0,1.43582E5,1E0,4.65E3,5.8343E4,9.5393E4,1E0,1E0,3.9E1,1.98E3,1E0,1E0,2.9393E4,2.13E2,1.3632326E-1,1E0,-3.8494837E-2,-2.1084024E-2,4.2011812E-3,-3.5650022E-2,2.0271468E-1,-2.6218846E-2,-3.2338265E-2,4.0097766E-2,-1.6454995E-2,3.800245E-2,-3.8111112E-3,-3.5743557E-2,-4.572375E-2,-1.0604151E-1,-4.924013E-2,1.325702E-1,-5.167342E-2,1.2084774E-1,3.6697052E-2,1.9495014E-2,3.9150473E-2,-4.096E-2,-2.5724484E-2,1.0780498E-2,-9.159858E-2,-2.706945E-5,5.6779623E-2,-3.873977E-2,-1.684897E-2,2.4391811E-2,-6.527142E-2,-3.6898472E-3,3.2554336E-2,-9.7467616E-2,8.396344E-2,-2.6526405E-2,3.2192823E-2,-3.7170473E-2,4.387649E-2,-3.8844675E-2,-3.0750781E-2,9.210864E-2,1.375518E-1,1.0373902E-2,-1.3814162E-1,4.48851E-2,-1.5422961E-2,5.9277184E-2],"split_indices":[34,1,46,48,1,45,28,52,3,31,1,43,3,23,2,10,3,11,5,0,0,1,4,26,3,58,0,6,54,0,0,12,58,0,43,68,3,41,31,1,15,37,0,10,1,0,0,31,11,3,2,5,31,0,2,0,13,0,0,0,0,0,0,0,0,0,0,0,0,0,0,0,0,0,0,0,0,0,0,0,0,0,0,0,0,0,0,0,0,0,0,0,0,0,0,0,0,0,0,0,0,0,0,0,0],"split_type":[0,0,0,0,0,0,0,0,0,0,0,0,0,0,0,0,0,0,0,0,0,0,0,0,0,0,0,0,0,0,0,0,0,0,0,0,0,0,0,0,0,0,0,0,0,0,0,0,0,0,0,0,0,0,0,0,0,0,0,0,0,0,0,0,0,0,0,0,0,0,0,0,0,0,0,0,0,0,0,0,0,0,0,0,0,0,0,0,0,0,0,0,0,0,0,0,0,0,0,0,0,0,0,0,0],"sum_hessian":[2.0513E4,1.1169E4,9.344E3,1.0895E4,2.74E2,7.854E3,1.49E3,5.729E3,5.166E3,1.9E1,2.55E2,6.504E3,1.35E3,1.206E3,2.84E2,5.721E3,8E0,4.201E3,9.65E2,1.1E1,8E0,6.3E1,1.92E2,5.216E3,1.288E3,1.24E2,1.226E3,9.6E2,2.46E2,2.72E2,1.2E1,5.387E3,3.34E2,3E0,5E0,3.937E3,2.64E2,8.44E2,1.21E2,1.9E1,4.4E1,1.89E2,3E0,5.044E3,1.72E2,1.71E2,1.117E3,7.8E1,4.6E1,6.1E1,1.165E3,8.98E2,6.2E1,2.36E2,1E1,5E0,2.67E2,5.256E3,1.31E2,8.6E1,2.48E2,4E0,1E0,3.922E3,1.5E1,2.38E2,2.6E1,7.22E2,1.22E2,1.18E2,3E0,1.2E1,7E0,4.3E1,1E0,1.78E2,1.1E1,1E0,2E0,4.429E3,6.15E2,1.7E2,2E0,1.5E1,1.56E2,1.66E2,9.51E2,4.6E1,3.2E1,4.3E1,3E0,5E0,5.6E1,1.144E3,2.1E1,8.78E2,2E1,5.7E1,5E0,7E0,2.29E2,9E0,1E0,2.5E2,1.7E1],"tree_param":{"num_deleted":"0","num_feature":"69","num_nodes":"105","size_leaf_vector":"0"}},{"base_weights":[-4.365967E-2,-7.252677E-2,-9.150402E-3,-7.602549E-2,6.636288E-2,-1.752301E-2,1.54476E-1,-7.6671384E-2,1.686498E-1,3.017039E-1,4.771763E-2,-2.8044265E-2,1.0264361E-1,2.4878936E-1,-1.049923E-1,-8.205671E-2,-5.433213E-2,1.0704997E-1,9.509043E-2,1.0727505E-1,5.810254E-2,-5.6369543E-2,8.1986345E-2,-2.4229381E-2,-3.522952E-1,1.03167795E-1,-5.6327105E-2,2.253113E-1,3.589316E-1,-3.9848104E-1,1.8545617E-1,-8.237137E-2,2.328765E-1,-4.3047305E-2,-1.16544455E-1,4.0407993E-2,-3.3876687E-2,5.3217825E-2,-1.0382238E-1,8.383785E-2,-2.6456825E-2,-1.23758815E-1,-1.2790451E-2,-3.7251562E-1,9.727091E-3,1.0969943E-1,8.618571E-2,3.338578E-2,-5.8732975E-2,1.8263143E-1,3.3050957E-1,1.1858894E-1,1.7092429E-1,-4.134683E-1,7.5113244E-2,2.4045627E-1,-1.1038624E-1,-2.556859E-2,-1.6850967E-2,-2.4244284E-2,1.2095728E-1,-8.366107E-3,-3.0969588E-2,-3.5845198E-2,2.8468436E-2,-3.5604402E-2,9.777052E-2,-3.6523715E-2,1.0272057E-1,2.5749447E-2,1.4133885E-2,3.32779E-2,-3.2767996E-2,-2.4801977E-2,-5.6220632E-2,-1.001757E-3,-4.3384213E-2,3.2304715E-2,-1.1539587E-1,7.3612995E-2,-9.231441E-2,3.3089135E-2,-2.9356826E-2,2.6421374E-2,-4.420398E-2,5.583916E-2,-7.7053145E-2,1.08250946E-1,3.3069216E-2,7.954775E-2,-5.062653E-2,-1.2846832E-1,6.860067E-2,-2.4267167E-3,1.1250712E-1],"categories":[],"categories_nodes":[],"categories_segments":[],"categories_sizes":[],"default_left":[0,0,0,0,0,0,0,0,0,0,0,0,0,0,0,0,0,0,0,0,0,0,0,0,0,0,0,0,0,0,0,0,0,0,0,0,0,0,0,0,0,0,0,0,0,0,0,0,0,0,0,0,0,0,0,0,0,0,0,0,0,0,0,0,0,0,0,0,0,0,0,0,0,0,0,0,0,0,0,0,0,0,0,0,0,0,0,0,0,0,0,0,0,0,0],"id":5,"left_children":[1,3,5,7,9,11,13,15,17,19,21,23,25,27,29,31,33,35,-1,-1,-1,37,39,41,43,45,47,49,51,53,55,57,59,61,63,-1,-1,65,67,69,71,73,75,77,79,81,83,-1,-1,85,87,-1,89,91,-1,93,-1,-1,-1,-1,-1,-1,-1,-1,-1,-1,-1,-1,-1,-1,-1,-1,-1,-1,-1,-1,-1,-1,-1,-1,-1,-1,-1,-1,-1,-1,-1,-1,-1,-1,-1,-1,-1,-1,-1],"loss_changes":[2.043502E1,5.4329605E0,1.2805169E1,1.7348671E0,1.192301E0,1.1243802E1,1.1160573E1,1.303009E0,2.3102355E-1,5.1477075E-2,9.177565E-1,1.0105007E1,6.5475464E-2,7.828274E-1,1.047359E1,8.867798E-1,1.4791284E0,1.4898679E-1,0E0,0E0,0E0,3.3833998E-1,4.0969253E-2,9.199858E0,6.9904613E-1,6.974268E-2,9.190782E-2,1.1878166E0,3.2213545E-1,6.967249E-1,1.9756091E0,6.500511E-1,5.134182E-1,1.6312587E0,2.1271467E-1,0E0,0E0,9.7616106E-1,4.015879E-1,9.8673105E-3,5.7600833E-2,2.162652E0,9.032287E0,5.6596565E-1,5.2433604E-1,7.430744E-2,1.023649E-1,0E0,0E0,3.5535908E-1,4.8797512E-1,0E0,3.968531E-1,6.665764E-1,0E0,1.909462E0,0E0,0E0,0E0,0E0,0E0,0E0,0E0,0E0,0E0,0E0,0E0,0E0,0E0,0E0,0E0,0E0,0E0,0E0,0E0,0E0,0E0,0E0,0E0,0E0,0E0,0E0,0E0,0E0,0E0,0E0,0E0,0E0,0E0,0E0,0E0,0E0,0E0,0E0,0E0],"parents":[2147483647,0,0,1,1,2,2,3,3,4,4,5,5,6,6,7,7,8,8,9,9,10,10,11,11,12,12,13,13,14,14,15,15,16,16,17,17,21,21,22,22,23,23,24,24,25,25,26,26,27,27,28,28,29,29,30,30,31,31,32,32,33,33,34,34,37,37,38,38,39,39,40,40,41,41,42,42,43,43,44,44,45,45,46,46,49,49,50,50,52,52,53,53,55,55],"right_children":[2,4,6,8,10,12,14,16,18,20,22,24,26,28,30,32,34,36,-1,-1,-1,38,40,42,44,46,48,50,52,54,56,58,60,62,64,-1,-1,66,68,70,72,74,76,78,80,82,84,-1,-1,86,88,-1,90,92,-1,94,-1,-1,-1,-1,-1,-1,-1,-1,-1,-1,-1,-1,-1,-1,-1,-1,-1,-1,-1,-1,-1,-1,-1,-1,-1,-1,-1,-1,-1,-1,-1,-1,-1,-1,-1,-1,-1,-1,-1],"split_conditions":[1E0,4.687E3,1.848E3,2.352E3,4.865E3,5.06E3,1.98E3,4.5E1,1E0,1E0,7.298E3,1.504E3,1E0,1E0,2.205E3,1E0,1E0,3.175E3,9.509043E-2,1.0727505E-1,5.810254E-2,5.013E3,1E0,3.5E1,1.741E3,1E0,8.8368E4,1E0,1E0,1E0,2.444E3,1E0,2.6E1,1E0,1E0,4.0407993E-2,-3.3876687E-2,4.931E3,1E0,1E0,1.43582E5,1E0,1E0,1.1E1,2.13258E5,1E0,8.5E1,3.338578E-2,-5.8732975E-2,1E0,1E0,1.1858894E-1,1E0,1E0,7.5113244E-2,2.392E3,-1.1038624E-1,-2.556859E-2,-1.6850967E-2,-2.4244284E-2,1.2095728E-1,-8.366107E-3,-3.0969588E-2,-3.5845198E-2,2.8468436E-2,-3.5604402E-2,9.777052E-2,-3.6523715E-2,1.0272057E-1,2.5749447E-2,1.4133885E-2,3.32779E-2,-3.2767996E-2,-2.4801977E-2,-5.6220632E-2,-1.001757E-3,-4.3384213E-2,3.2304715E-2,-1.1539587E-1,7.3612995E-2,-9.231441E-2,3.3089135E-2,-2.9356826E-2,2.6421374E-2,-4.420398E-2,5.583916E-2,-7.7053145E-2,1.08250946E-1,3.3069216E-2,7.954775E-2,-5.062653E-2,-1.2846832E-1,6.860067E-2,-2.4267167E-3,1.1250712E-1],"split_indices":[34,1,2,2,1,1,2,3,31,31,1,2,18,29,2,52,5,2,0,0,0,1,4,3,2,46,0,28,46,17,2,45,3,41,63,0,0,1,15,37,0,28,27,3,0,49,3,0,0,26,10,0,11,14,0,2,0,0,0,0,0,0,0,0,0,0,0,0,0,0,0,0,0,0,0,0,0,0,0,0,0,0,0,0,0,0,0,0,0,0,0,0,0,0,0],"split_type":[0,0,0,0,0,0,0,0,0,0,0,0,0,0,0,0,0,0,0,0,0,0,0,0,0,0,0,0,0,0,0,0,0,0,0,0,0,0,0,0,0,0,0,0,0,0,0,0,0,0,0,0,0,0,0,0,0,0,0,0,0,0,0,0,0,0,0,0,0,0,0,0,0,0,0,0,0,0,0,0,0,0,0,0,0,0,0,0,0,0,0,0,0,0,0],"sum_hessian":[2.0513E4,1.1169E4,9.344E3,1.0895E4,2.74E2,8.89E3,4.54E2,1.0867E4,2.8E1,1.9E1,2.55E2,8.175E3,7.15E2,3.33E2,1.21E2,8.754E3,2.113E3,2.1E1,7E0,1.1E1,8E0,6.3E1,1.92E2,8.081E3,9.4E1,7.13E2,2E0,2.77E2,5.6E1,6E1,6.1E1,8.746E3,8E0,1.79E3,3.23E2,1.9E1,2E0,1.9E1,4.4E1,1.89E2,3E0,8.32E2,7.249E3,8.9E1,5E0,5.11E2,2.02E2,1E0,1E0,1.99E2,7.8E1,4.6E1,1E1,5.9E1,1E0,5.6E1,5E0,7.884E3,8.62E2,3E0,5E0,1.431E3,3.59E2,3.19E2,4E0,1.2E1,7E0,4.3E1,1E0,1.78E2,1.1E1,1E0,2E0,5.07E2,3.25E2,6.765E3,4.84E2,2E0,8.7E1,3E0,2E0,5.1E2,1E0,2.01E2,1E0,1.98E2,1E0,6.8E1,1E1,8E0,2E0,5.8E1,1E0,2E1,3.6E1],"tree_param":{"num_deleted":"0","num_feature":"69","num_nodes":"95","size_leaf_vector":"0"}},{"base_weights":[-3.0539382E-2,-4.5640692E-2,5.3020786E-3,-4.9493525E-2,4.884117E-2,-3.0122187E-2,3.2700118E-2,-4.769959E-2,-2.40185E-1,4.8785412E-1,2.074496E-2,-4.0209528E-2,4.276857E-2,5.373675E-2,-3.6075916E-2,-4.928136E-2,5.394428E-1,-9.127015E-2,-3.135811E-1,5.134031E-1,-5.328932E-2,-1.6429509E-1,6.074054E-2,-4.5186356E-2,6.572955E-2,6.385671E-2,-1.271246E-1,6.672358E-2,-7.630208E-2,-5.6629762E-2,2.1973562E-1,-5.415264E-2,2.0662846E-2,-2.2251135E-2,5.5854785E-1,-8.3567746E-2,-4.0390614E-2,-3.2498607E-1,-4.8527926E-2,5.3973E-1,7.022416E-2,-6.368485E-3,-3.2544634E-1,6.698508E-2,-2.6626207E-2,-3.8538773E-2,-1.0596174E-1,1.9119789E-1,4.901307E-2,7.1504064E-2,-7.6003365E-2,-1.4673832E-1,8.3903454E-2,7.4682854E-2,-1.3980462E-1,-2.2918975E-2,-1.5421426E-1,-2.4103716E-2,-1.7171225E-1,2.8680366E-1,-1.4428492E-1,-1.8031731E-2,1.573978E-3,4.196124E-3,8.916001E-2,1.8065919E-1,1.0820663E-1,-2.173943E-2,-3.1875458E-2,-7.182703E-2,-1.0287476E-1,1.7063184E-1,2.3721913E-2,7.341938E-2,-4.1818507E-2,-3.0169994E-2,2.4248581E-2,-1.0222937E-1,-4.9193326E-2,2.114245E-2,2.3765732E-3,-3.2807942E-2,1.9019414E-2,-4.4761966E-3,-1.8015837E-2,-3.2977164E-2,1.13667674E-1,8.202284E-2,-1.2473275E-2,1.2542844E-2,1.0784209E-1,9.437574E-3,3.9873704E-2,-4.995457E-2,7.885149E-2,2.3594055E-2,-7.862578E-2,-5.074684E-2,3.2696333E-2,2.5795894E-2,-2.4181051E-2,-1.9479627E-2,-6.041029E-2,9.90633E-2,-8.8851545E-3,-6.0029466E-2,1.663468E-2,-3.533453E-2,9.712274E-2,-8.9321174E-2,4.8098363E-2],"categories":[],"categories_nodes":[],"categories_segments":[],"categories_sizes":[],"default_left":[0,0,0,0,0,0,0,0,0,0,0,0,0,0,0,0,0,0,0,0,0,0,0,0,0,0,0,0,0,0,0,0,0,0,0,0,0,0,0,0,0,0,0,0,0,0,0,0,0,0,0,0,0,0,0,0,0,0,0,0,0,0,0,0,0,0,0,0,0,0,0,0,0,0,0,0,0,0,0,0,0,0,0,0,0,0,0,0,0,0,0,0,0,0,0,0,0,0,0,0,0,0,0,0,0,0,0,0,0,0,0],"id":6,"left_children":[1,3,5,7,9,11,13,15,17,19,21,23,25,27,29,31,33,35,37,39,-1,41,43,45,47,49,51,53,55,57,59,61,63,-1,65,67,-1,69,-1,71,73,75,77,79,81,83,85,87,89,91,-1,93,-1,95,97,99,101,103,105,107,109,-1,-1,-1,-1,-1,-1,-1,-1,-1,-1,-1,-1,-1,-1,-1,-1,-1,-1,-1,-1,-1,-1,-1,-1,-1,-1,-1,-1,-1,-1,-1,-1,-1,-1,-1,-1,-1,-1,-1,-1,-1,-1,-1,-1,-1,-1,-1,-1,-1,-1],"loss_changes":[1.1103506E1,5.256359E0,5.9039025E0,4.732624E0,6.971264E0,1.9524014E0,4.9645176E0,1.2787252E1,1.3813205E0,6.6928005E-1,3.9545975E0,1.2319679E0,1.16534E0,4.441549E0,4.2398043E0,4.670315E0,4.751835E-1,3.4455657E-3,9.634018E-2,3.4712696E-1,0E0,2.415684E0,2.4128664E-1,8.956456E-1,2.1085474E-1,7.167306E-1,3.282808E-1,3.9375134E0,9.9051297E-1,2.784529E0,1.5062299E0,4.530781E0,1.644408E0,0E0,9.370613E-2,2.374798E-3,0E0,3.9093018E-2,0E0,3.697672E-1,1.4385441E-1,4.1060507E-1,6.037283E-2,8.394909E-2,2.3037408E-1,1.019918E0,4.623611E-1,2.4100974E-1,1.9519514E-1,6.892917E-1,0E0,3.2727218E-1,0E0,3.0923262E0,6.683519E-1,9.052782E-1,3.9529037E-1,1.1467177E0,1.0685983E0,8.003206E-1,5.15171E-1,0E0,0E0,0E0,0E0,0E0,0E0,0E0,0E0,0E0,0E0,0E0,0E0,0E0,0E0,0E0,0E0,0E0,0E0,0E0,0E0,0E0,0E0,0E0,0E0,0E0,0E0,0E0,0E0,0E0,0E0,0E0,0E0,0E0,0E0,0E0,0E0,0E0,0E0,0E0,0E0,0E0,0E0,0E0,0E0,0E0,0E0,0E0,0E0,0E0,0E0],"parents":[2147483647,0,0,1,1,2,2,3,3,4,4,5,5,6,6,7,7,8,8,9,9,10,10,11,11,12,12,13,13,14,14,15,15,16,16,17,17,18,18,19,19,21,21,22,22,23,23,24,24,25,25,26,26,27,27,28,28,29,29,30,30,31,31,32,32,34,34,35,35,37,37,39,39,40,40,41,41,42,42,43,43,44,44,45,45,46,46,47,47,48,48,49,49,51,51,53,53,54,54,55,55,56,56,57,57,58,58,59,59,60,60],"right_children":[2,4,6,8,10,12,14,16,18,20,22,24,26,28,30,32,34,36,38,40,-1,42,44,46,48,50,52,54,56,58,60,62,64,-1,66,68,-1,70,-1,72,74,76,78,80,82,84,86,88,90,92,-1,94,-1,96,98,100,102,104,106,108,110,-1,-1,-1,-1,-1,-1,-1,-1,-1,-1,-1,-1,-1,-1,-1,-1,-1,-1,-1,-1,-1,-1,-1,-1,-1,-1,-1,-1,-1,-1,-1,-1,-1,-1,-1,-1,-1,-1,-1,-1,-1,-1,-1,-1,-1,-1,-1,-1,-1,-1],"split_conditions":[4.1E1,4.386E3,1E0,3.137E3,4.416E3,1E0,1E0,3.103E3,1E0,1E0,5.178E3,4.687E3,1E0,1E0,1E0,1E0,2.1E1,1E0,1E0,1E0,-5.328932E-2,1E0,1E0,1E0,5.013E3,1E0,1E0,1E0,1E0,1E0,1E0,1E0,1E0,-2.2251135E-2,1E0,1E0,-4.0390614E-2,3.5E1,-4.8527926E-2,3.16101E5,7.0604E4,4.687E3,1E0,1E0,7.298E3,1E0,4.73133E5,1E0,1E0,5.3E1,-7.6003365E-2,4.51742E5,8.3903454E-2,1E0,1E0,1.25E5,4.6E1,2.7856E4,1E0,4.5E1,2.05527E5,-1.8031731E-2,1.573978E-3,4.196124E-3,8.916001E-2,1.8065919E-1,1.0820663E-1,-2.173943E-2,-3.1875458E-2,-7.182703E-2,-1.0287476E-1,1.7063184E-1,2.3721913E-2,7.341938E-2,-4.1818507E-2,-3.0169994E-2,2.4248581E-2,-1.0222937E-1,-4.9193326E-2,2.114245E-2,2.3765732E-3,-3.2807942E-2,1.9019414E-2,-4.4761966E-3,-1.8015837E-2,-3.2977164E-2,1.13667674E-1,8.202284E-2,-1.2473275E-2,1.2542844E-2,1.0784209E-1,9.437574E-3,3.9873704E-2,-4.995457E-2,7.885149E-2,2.3594055E-2,-7.862578E-2,-5.074684E-2,3.2696333E-2,2.5795894E-2,-2.4181051E-2,-1.9479627E-2,-6.041029E-2,9.90633E-2,-8.8851545E-3,-6.0029466E-2,1.663468E-2,-3.533453E-2,9.712274E-2,-8.9321174E-2,4.8098363E-2],"split_indices":[3,1,47,1,1,31,23,1,34,64,1,1,6,6,44,11,3,31,39,31,0,34,51,39,1,5,35,5,28,41,6,10,44,0,45,30,0,3,0,0,0,1,27,14,1,36,0,41,18,3,0,0,0,26,30,0,3,0,11,3,0,0,0,0,0,0,0,0,0,0,0,0,0,0,0,0,0,0,0,0,0,0,0,0,0,0,0,0,0,0,0,0,0,0,0,0,0,0,0,0,0,0,0,0,0,0,0,0,0,0,0],"split_type":[0,0,0,0,0,0,0,0,0,0,0,0,0,0,0,0,0,0,0,0,0,0,0,0,0,0,0,0,0,0,0,0,0,0,0,0,0,0,0,0,0,0,0,0,0,0,0,0,0,0,0,0,0,0,0,0,0,0,0,0,0,0,0,0,0,0,0,0,0,0,0,0,0,0,0,0,0,0,0,0,0,0,0,0,0,0,0,0,0,0,0,0,0,0,0,0,0,0,0,0,0,0,0,0,0,0,0,0,0,0,0],"sum_hessian":[2.0513E4,1.4432E4,6.081E3,1.3867E4,5.65E2,2.652E3,3.429E3,1.3739E4,1.28E2,3.3E1,5.32E2,2.33E3,3.22E2,2.626E3,8.03E2,1.3703E4,3.6E1,4.3E1,8.5E1,3.2E1,1E0,9.4E1,4.38E2,2.226E3,1.04E2,2.87E2,3.5E1,2.388E3,2.38E2,7.44E2,5.9E1,1.2811E4,8.92E2,1E0,3.5E1,3.9E1,4E0,7.8E1,7E0,3E1,2E0,4.8E1,4.6E1,4.09E2,2.9E1,2.008E3,2.18E2,1.1E1,9.3E1,2.81E2,6E0,3.4E1,1E0,2.3E3,8.8E1,1.42E2,9.6E1,5.81E2,1.63E2,5E1,9E0,1.1644E4,1.167E3,8.72E2,2E1,2.7E1,8E0,2.9E1,1E1,1.6E1,6.2E1,2.8E1,2E0,1E0,1E0,2.3E1,2.5E1,4.1E1,5E0,3.86E2,2.3E1,1.5E1,1.4E1,9.58E2,1.05E3,2.17E2,1E0,8E0,3E0,9.2E1,1E0,1.71E2,1.1E2,3.3E1,1E0,2.274E3,2.6E1,7.9E1,9E0,4.9E1,9.3E1,3.4E1,6.2E1,8E0,5.73E2,1.45E2,1.8E1,4E0,4.6E1,6E0,3E0],"tree_param":{"num_deleted":"0","num_feature":"69","num_nodes":"111","size_leaf_vector":"0"}},{"base_weights":[-2.136287E-2,-2.8597739E-2,2.9753178E-2,-3.648554E-2,1.7426308E-2,1.7564174E-2,1.0132435E-1,-3.9558537E-2,4.6861712E-2,-1.7929502E-2,5.0911143E-2,-1.4286926E-2,4.1412774E-2,1.2490824E-1,2.199025E-2,-3.3455577E-2,-7.729823E-2,3.8265654E-1,2.0989941E-2,1.8728253E-2,-4.402663E-2,-3.984689E-2,6.0606796E-2,-1.7555032E-2,2.3773082E-1,5.8856156E-2,-2.2636063E-2,1.2953573E-1,-1.05976656E-1,-1.12075835E-1,4.7400318E-2,-3.613725E-2,6.717986E-2,-4.4385362E-2,-1.12448886E-1,4.006731E-1,-4.5295924E-2,-1.3646406E-1,5.2505508E-2,3.8462203E-2,-8.428963E-2,-5.019437E-2,7.93518E-2,1.4415984E-2,-1.3094835E-1,4.76643E-2,1.3821098E-1,-4.212612E-2,1.7537294E-2,1.1674814E-1,1.6852885E-1,7.142766E-2,-9.128754E-2,-1.6669108E-1,7.3151374E-3,1.3379538E-1,-9.3788765E-2,-1.6006176E-1,4.7904402E-2,3.7228998E-2,7.6411076E-2,-1.3196979E-2,-8.1494957E-4,3.4761768E-2,-1.6500827E-2,-1.5347424E-2,-3.5678025E-3,-4.254748E-2,-1.7726922E-2,1.2546197E-1,-3.7209716E-2,8.5834535E-3,-7.74984E-2,2.698497E-3,2.0039687E-2,1.9954294E-2,-1.3886399E-2,-2.183583E-2,-5.238641E-2,-9.320309E-3,-2.5203092E-2,1.1605959E-3,1.3683683E-1,-6.888247E-3,8.686883E-2,-6.442693E-2,1.6598426E-2,1.7083146E-2,-1.7441126E-2,4.5135417E-3,5.8053073E-2,-1.4003247E-2,8.025372E-2,2.7706103E-2,-9.823605E-3,-1.8078562E-2,9.174316E-2,1.7506657E-2,4.52526E-2,1.9623436E-2,-4.3400433E-2,-7.77322E-2,-6.5176473E-3,7.4730148E-3,-8.324191E-2,4.546905E-2,1.3972703E-2,-6.627844E-2,-2.1755528E-2,1.6391827E-2,4.154903E-3,1.2624193E-2,7.917603E-3,2.3933012E-2,2.8793246E-3],"categories":[],"categories_nodes":[],"categories_segments":[],"categories_sizes":[],"default_left":[0,0,0,0,0,0,0,0,0,0,0,0,0,0,0,0,0,0,0,0,0,0,0,0,0,0,0,0,0,0,0,0,0,0,0,0,0,0,0,0,0,0,0,0,0,0,0,0,0,0,0,0,0,0,0,0,0,0,0,0,0,0,0,0,0,0,0,0,0,0,0,0,0,0,0,0,0,0,0,0,0,0,0,0,0,0,0,0,0,0,0,0,0,0,0,0,0,0,0,0,0,0,0,0,0,0,0,0,0,0,0,0,0,0,0],"id":7,"left_children":[1,3,5,7,9,11,13,15,17,19,21,23,25,27,29,31,33,35,37,39,41,43,45,47,49,51,53,55,-1,57,59,61,63,65,67,69,-1,71,73,75,77,79,81,83,85,87,89,91,93,95,-1,97,99,101,103,105,-1,107,109,111,113,-1,-1,-1,-1,-1,-1,-1,-1,-1,-1,-1,-1,-1,-1,-1,-1,-1,-1,-1,-1,-1,-1,-1,-1,-1,-1,-1,-1,-1,-1,-1,-1,-1,-1,-1,-1,-1,-1,-1,-1,-1,-1,-1,-1,-1,-1,-1,-1,-1,-1,-1,-1,-1,-1],"loss_changes":[7.5872974E0,6.524621E0,2.2175586E0,3.9313335E0,3.1145263E0,1.652731E0,6.8952584E-1,3.4055157E0,4.735401E0,1.2253522E0,1.1912386E0,7.71788E-1,1.3911641E0,6.763797E-1,2.982825E-1,3.4403172E0,2.3770847E0,4.3545818E-1,2.5279891E0,1.0868043E0,5.7318544E-1,6.494767E-1,1.2197747E0,7.9487705E-1,4.0484226E-1,1.8525264E0,1.153223E0,5.7484865E-1,0E0,1.1514285E-1,1.8695965E-2,3.256527E0,1.9756252E0,2.3375964E-1,1.5512629E0,4.0146732E-1,0E0,1.7173157E0,2.630912E-1,1.0681636E0,7.665545E-2,4.5854855E-1,1.0220704E0,8.6022955E-1,7.76844E-1,1.0322218E0,1.1821992E0,7.763158E-1,1.4325709E0,3.5308808E-1,0E0,9.286151E-1,6.4517874E-1,6.106409E-1,1.1193146E0,4.2841482E-1,0E0,4.2591512E-2,1.6069785E-4,1.8337294E-3,3.281951E-3,0E0,0E0,0E0,0E0,0E0,0E0,0E0,0E0,0E0,0E0,0E0,0E0,0E0,0E0,0E0,0E0,0E0,0E0,0E0,0E0,0E0,0E0,0E0,0E0,0E0,0E0,0E0,0E0,0E0,0E0,0E0,0E0,0E0,0E0,0E0,0E0,0E0,0E0,0E0,0E0,0E0,0E0,0E0,0E0,0E0,0E0,0E0,0E0,0E0,0E0,0E0,0E0,0E0,0E0],"parents":[2147483647,0,0,1,1,2,2,3,3,4,4,5,5,6,6,7,7,8,8,9,9,10,10,11,11,12,12,13,13,14,14,15,15,16,16,17,17,18,18,19,19,20,20,21,21,22,22,23,23,24,24,25,25,26,26,27,27,29,29,30,30,31,31,32,32,33,33,34,34,35,35,37,37,38,38,39,39,40,40,41,41,42,42,43,43,44,44,45,45,46,46,47,47,48,48,49,49,51,51,52,52,53,53,54,54,55,55,57,57,58,58,59,59,60,60],"right_children":[2,4,6,8,10,12,14,16,18,20,22,24,26,28,30,32,34,36,38,40,42,44,46,48,50,52,54,56,-1,58,60,62,64,66,68,70,-1,72,74,76,78,80,82,84,86,88,90,92,94,96,-1,98,100,102,104,106,-1,108,110,112,114,-1,-1,-1,-1,-1,-1,-1,-1,-1,-1,-1,-1,-1,-1,-1,-1,-1,-1,-1,-1,-1,-1,-1,-1,-1,-1,-1,-1,-1,-1,-1,-1,-1,-1,-1,-1,-1,-1,-1,-1,-1,-1,-1,-1,-1,-1,-1,-1,-1,-1,-1,-1,-1,-1],"split_conditions":[1E0,1E0,1E0,4.386E3,1E0,1E0,1.14E2,1E0,4.416E3,1E0,1E0,1E0,1E0,1E0,6.097E3,1E0,1E0,1E0,5.178E3,1E0,1E0,1.86376E5,1E0,1E0,2.13E2,1E0,3.8E1,1E0,-1.05976656E-1,4.6E1,1E0,1E0,1E0,1E0,4.1E1,1E0,-4.5295924E-2,1E0,1E0,1E0,1E0,1.92916E5,1.97515E5,1E0,4.1E1,1E0,1.14939E5,1E0,1E0,1E0,1.6852885E-1,1E0,1.20029E5,1E0,1E0,1E0,-9.3788765E-2,1E0,2.16479E5,5.1E1,7.2E1,-1.3196979E-2,-8.1494957E-4,3.4761768E-2,-1.6500827E-2,-1.5347424E-2,-3.5678025E-3,-4.254748E-2,-1.7726922E-2,1.2546197E-1,-3.7209716E-2,8.5834535E-3,-7.74984E-2,2.698497E-3,2.0039687E-2,1.9954294E-2,-1.3886399E-2,-2.183583E-2,-5.238641E-2,-9.320309E-3,-2.5203092E-2,1.1605959E-3,1.3683683E-1,-6.888247E-3,8.686883E-2,-6.442693E-2,1.6598426E-2,1.7083146E-2,-1.7441126E-2,4.5135417E-3,5.8053073E-2,-1.4003247E-2,8.025372E-2,2.7706103E-2,-9.823605E-3,-1.8078562E-2,9.174316E-2,1.7506657E-2,4.52526E-2,1.9623436E-2,-4.3400433E-2,-7.77322E-2,-6.5176473E-3,7.4730148E-3,-8.324191E-2,4.546905E-2,1.3972703E-2,-6.627844E-2,-2.1755528E-2,1.6391827E-2,4.154903E-3,1.2624193E-2,7.917603E-3,2.3933012E-2,2.8793246E-3],"split_indices":[46,45,31,1,34,34,1,7,1,58,57,67,23,62,1,44,34,64,1,5,24,0,58,30,2,6,3,15,0,3,23,43,22,43,3,61,0,34,34,6,31,0,0,10,3,6,0,14,36,32,0,10,0,30,54,36,0,22,0,3,3,0,0,0,0,0,0,0,0,0,0,0,0,0,0,0,0,0,0,0,0,0,0,0,0,0,0,0,0,0,0,0,0,0,0,0,0,0,0,0,0,0,0,0,0,0,0,0,0,0,0,0,0,0,0],"split_type":[0,0,0,0,0,0,0,0,0,0,0,0,0,0,0,0,0,0,0,0,0,0,0,0,0,0,0,0,0,0,0,0,0,0,0,0,0,0,0,0,0,0,0,0,0,0,0,0,0,0,0,0,0,0,0,0,0,0,0,0,0,0,0,0,0,0,0,0,0,0,0,0,0,0,0,0,0,0,0,0,0,0,0,0,0,0,0,0,0,0,0,0,0,0,0,0,0,0,0,0,0,0,0,0,0,0,0,0,0,0,0,0,0,0,0],"sum_hessian":[2.0513E4,1.797E4,2.543E3,1.5341E4,2.629E3,2.174E3,3.69E2,1.4796E4,5.45E2,1.279E3,1.35E3,9.31E2,1.243E3,2.84E2,8.5E1,1.2738E4,2.058E3,3.8E1,5.07E2,5.32E2,7.47E2,1.3E2,1.22E3,9.2E2,1.1E1,9.77E2,2.66E2,2.82E2,2E0,1.3E1,7.2E1,1.2408E4,3.3E2,1.064E3,9.94E2,3.7E1,1E0,8.4E1,4.23E2,4.47E2,8.5E1,7.12E2,3.5E1,8.2E1,4.8E1,1.047E3,1.73E2,5.41E2,3.79E2,9E0,2E0,9.02E2,7.5E1,4.5E1,2.21E2,2.8E2,2E0,1E1,3E0,5.5E1,1.7E1,1.0047E4,2.361E3,2.36E2,9.4E1,8.8E2,1.84E2,6.4E2,3.54E2,3.6E1,1E0,3.6E1,4.8E1,1.05E2,3.18E2,3.36E2,1.11E2,7.7E1,8E0,4.56E2,2.56E2,3E1,5E0,7.3E1,9E0,3.3E1,1.5E1,9.63E2,8.4E1,5.4E1,1.19E2,5.34E2,7E0,1.52E2,2.27E2,5E0,4E0,7.76E2,1.26E2,1.9E1,5.6E1,2.7E1,1.8E1,2.09E2,1.2E1,2.32E2,4.8E1,5E0,5E0,2E0,1E0,3.6E1,1.9E1,1.6E1,1E0],"tree_param":{"num_deleted":"0","num_feature":"69","num_nodes":"115","size_leaf_vector":"0"}},{"base_weights":[-1.4949312E-2,-1.7628917E-2,7.1635745E-2,-2.0179916E-2,6.7984164E-2,1.3351843E-1,-3.208006E-2,-1.4884125E-2,-5.6801777E-2,1.0706069E-1,-3.6073104E-2,-9.127406E-2,1.649536E-1,-1.7614858E-1,1.00347094E-1,-8.787931E-3,-4.9857106E-2,-4.5599524E-2,-8.394095E-2,1.3784313E-1,3.186195E-2,-5.3547632E-2,2.5917712E-1,1.2583037E-1,-1.1106434E-1,1.4017871E-1,2.4341007E-1,-7.480366E-2,-2.579919E-1,1.6877819E-2,1.6091932E-1,-4.045107E-2,5.8246776E-5,-4.0065948E-2,-1.0385913E-1,-4.6601772E-2,1.7595963E-1,1.2069539E-1,-8.6565904E-2,1.478501E-1,-1.9880755E-1,-1.1490314E-2,2.5570062E-1,-6.036141E-2,1.4425582E-1,-3.479967E-2,3.20574E-1,-8.877645E-2,-6.772241E-2,1.1211905E-1,2.3184226E-1,1.8209903E-1,3.507699E-1,-5.2212935E-2,-1.5220512E-1,-2.696999E-1,6.6673264E-2,1.437565E-1,-1.3713716E-1,2.4934271E-1,5.9960946E-2,-1.4429745E-2,1.479666E-2,3.1989838E-3,-1.2150102E-2,-1.1656242E-2,-3.980972E-2,-3.44252E-2,-2.1969394E-3,-1.4510425E-2,1.6406741E-2,-1.51104E-2,1.709885E-1,-3.0562535E-2,-7.894741E-3,4.9714684E-2,-1.4231463E-2,-1.1590154E-2,-8.173663E-2,1.18864655E-1,-8.256994E-3,9.739701E-2,-3.0386336E-2,-1.975539E-2,6.8629056E-2,1.4569741E-1,1.0222636E-2,-1.8803462E-2,-4.398721E-2,3.444141E-2,-6.375173E-2,-1.7087312E-2,7.441246E-2,6.879313E-2,-1.3607046E-1,1.1111917E-1,4.2122003E-2,-9.911526E-3,-1.7980633E-2,-5.6453835E-2,-1.2661561E-2,-8.420509E-2,5.6751013E-2,-8.145802E-3,7.4912846E-2,-7.695962E-2,7.914084E-2,1.0604703E-1,3.9621603E-2,3.705126E-2,-7.714748E-2],"categories":[],"categories_nodes":[],"categories_segments":[],"categories_sizes":[],"default_left":[0,0,0,0,0,0,0,0,0,0,0,0,0,0,0,0,0,0,0,0,0,0,0,0,0,0,0,0,0,0,0,0,0,0,0,0,0,0,0,0,0,0,0,0,0,0,0,0,0,0,0,0,0,0,0,0,0,0,0,0,0,0,0,0,0,0,0,0,0,0,0,0,0,0,0,0,0,0,0,0,0,0,0,0,0,0,0,0,0,0,0,0,0,0,0,0,0,0,0,0,0,0,0,0,0,0,0,0,0,0,0],"id":8,"left_children":[1,3,5,7,9,11,13,15,17,19,21,23,25,27,29,31,33,35,37,39,41,43,45,-1,47,49,51,53,55,57,59,61,63,65,67,69,71,-1,73,75,77,79,81,83,-1,-1,85,87,-1,89,91,93,95,97,99,101,-1,103,105,107,109,-1,-1,-1,-1,-1,-1,-1,-1,-1,-1,-1,-1,-1,-1,-1,-1,-1,-1,-1,-1,-1,-1,-1,-1,-1,-1,-1,-1,-1,-1,-1,-1,-1,-1,-1,-1,-1,-1,-1,-1,-1,-1,-1,-1,-1,-1,-1,-1,-1,-1],"loss_changes":[4.760792E0,4.347291E0,3.9579024E0,3.7468848E0,2.3459911E0,2.7426825E0,4.4248295E0,3.599266E0,7.382846E-1,9.655094E-1,8.2905686E-1,5.3172344E-1,6.248112E-1,9.013803E-1,6.090503E-1,4.027528E0,1.3208666E0,3.9235902E-1,9.4362974E-1,1.0299425E0,1.1965195E0,5.7521784E-1,2.444979E-1,0E0,1.00087166E-1,6.427388E-1,4.627123E-1,8.122924E-2,4.0291834E-1,1.0358577E0,6.099448E-1,2.1582747E0,4.835038E0,2.3315811E-1,4.0290737E-1,3.109088E-1,7.420962E-1,0E0,6.5128756E-1,1.0161605E0,9.564206E-2,6.907268E-1,5.2521396E-1,2.5156653E-1,0E0,0E0,3.618216E-1,5.2708417E-2,0E0,1.9963455E-1,2.9482841E-1,1.6945769E0,6.360221E-2,4.09092E-3,3.5586745E-2,3.555026E-1,0E0,5.3192204E-1,1.2165581E0,4.052112E-1,7.168868E-1,0E0,0E0,0E0,0E0,0E0,0E0,0E0,0E0,0E0,0E0,0E0,0E0,0E0,0E0,0E0,0E0,0E0,0E0,0E0,0E0,0E0,0E0,0E0,0E0,0E0,0E0,0E0,0E0,0E0,0E0,0E0,0E0,0E0,0E0,0E0,0E0,0E0,0E0,0E0,0E0,0E0,0E0,0E0,0E0,0E0,0E0,0E0,0E0,0E0,0E0],"parents":[2147483647,0,0,1,1,2,2,3,3,4,4,5,5,6,6,7,7,8,8,9,9,10,10,11,11,12,12,13,13,14,14,15,15,16,16,17,17,18,18,19,19,20,20,21,21,22,22,24,24,25,25,26,26,27,27,28,28,29,29,30,30,31,31,32,32,33,33,34,34,35,35,36,36,38,38,39,39,40,40,41,41,42,42,43,43,46,46,47,47,49,49,50,50,51,51,52,52,53,53,54,54,55,55,57,57,58,58,59,59,60,60],"right_children":[2,4,6,8,10,12,14,16,18,20,22,24,26,28,30,32,34,36,38,40,42,44,46,-1,48,50,52,54,56,58,60,62,64,66,68,70,72,-1,74,76,78,80,82,84,-1,-1,86,88,-1,90,92,94,96,98,100,102,-1,104,106,108,110,-1,-1,-1,-1,-1,-1,-1,-1,-1,-1,-1,-1,-1,-1,-1,-1,-1,-1,-1,-1,-1,-1,-1,-1,-1,-1,-1,-1,-1,-1,-1,-1,-1,-1,-1,-1,-1,-1,-1,-1,-1,-1,-1,-1,-1,-1,-1,-1,-1,-1],"split_conditions":[1.755E3,1E0,1.98E3,1E0,1E0,1E0,2.231E3,1E0,1E0,1E0,5.6E1,1.762E3,1E0,1E0,2.392E3,3.7E1,1E0,1E0,2.6586E4,1E0,1E0,1E0,5.2963E4,1.2583037E-1,1E0,1E0,2.25541E5,4.3E1,1E0,2.267E3,2.444E3,1E0,1E0,1E0,5.3E1,1.51E3,1E0,1.2069539E-1,1E0,5.7E1,1E0,3.3035E4,1E0,1E0,1.4425582E-1,-3.479967E-2,6.6E1,4.1E1,-6.772241E-2,1E0,1.848E3,1E0,1E0,1E0,1E0,1E0,6.6673264E-2,1E0,1E0,1E0,1E0,-1.4429745E-2,1.479666E-2,3.1989838E-3,-1.2150102E-2,-1.1656242E-2,-3.980972E-2,-3.44252E-2,-2.1969394E-3,-1.4510425E-2,1.6406741E-2,-1.51104E-2,1.709885E-1,-3.0562535E-2,-7.894741E-3,4.9714684E-2,-1.4231463E-2,-1.1590154E-2,-8.173663E-2,1.18864655E-1,-8.256994E-3,9.739701E-2,-3.0386336E-2,-1.975539E-2,6.8629056E-2,1.4569741E-1,1.0222636E-2,-1.8803462E-2,-4.398721E-2,3.444141E-2,-6.375173E-2,-1.7087312E-2,7.441246E-2,6.879313E-2,-1.3607046E-1,1.1111917E-1,4.2122003E-2,-9.911526E-3,-1.7980633E-2,-5.6453835E-2,-1.2661561E-2,-8.420509E-2,5.6751013E-2,-8.145802E-3,7.4912846E-2,-7.695962E-2,7.914084E-2,1.0604703E-1,3.9621603E-2,3.705126E-2,-7.714748E-2],"split_indices":[2,24,2,6,36,34,2,5,47,58,3,2,28,34,2,3,34,38,0,40,45,14,0,0,31,29,0,3,17,2,2,52,7,31,3,2,30,0,30,3,34,0,38,63,0,0,3,3,0,26,2,10,46,48,28,14,0,22,14,31,34,0,0,0,0,0,0,0,0,0,0,0,0,0,0,0,0,0,0,0,0,0,0,0,0,0,0,0,0,0,0,0,0,0,0,0,0,0,0,0,0,0,0,0,0,0,0,0,0,0,0],"split_type":[0,0,0,0,0,0,0,0,0,0,0,0,0,0,0,0,0,0,0,0,0,0,0,0,0,0,0,0,0,0,0,0,0,0,0,0,0,0,0,0,0,0,0,0,0,0,0,0,0,0,0,0,0,0,0,0,0,0,0,0,0,0,0,0,0,0,0,0,0,0,0,0,0,0,0,0,0,0,0,0,0,0,0,0,0,0,0,0,0,0,0,0,0,0,0,0,0,0,0,0,0,0,0,0,0,0,0,0,0,0,0],"sum_hessian":[2.0513E4,1.9898E4,6.15E2,1.9323E4,5.75E2,3.85E2,2.3E2,1.6883E4,2.44E3,4.18E2,1.57E2,4.7E1,3.38E2,1.1E2,1.2E2,1.4378E4,2.505E3,1.729E3,7.11E2,2.96E2,1.22E2,1.49E2,8E0,1E0,4.6E1,2.59E2,7.9E1,5E1,6E1,5.1E1,6.9E1,3.139E3,1.1239E4,2.122E3,3.83E2,1.722E3,7E0,3E0,7.08E2,2.88E2,8E0,1.03E2,1.9E1,1.48E2,1E0,1E0,7E0,4E1,6E0,2E2,5.9E1,5.2E1,2.7E1,4E1,1E1,5.9E1,1E0,2.8E1,2.3E1,3.6E1,3.3E1,2.893E3,2.46E2,8.91E3,2.329E3,2.096E3,2.6E1,3.44E2,3.9E1,1.693E3,2.9E1,5E0,2E0,5.64E2,1.44E2,2.64E2,2.4E1,3E0,5E0,3E0,1E2,1.6E1,3E0,1.46E2,2E0,4E0,3E0,2.9E1,1.1E1,1.99E2,1E0,3E0,5.6E1,4.9E1,3E0,2.4E1,3E0,1.3E1,2.7E1,7E0,3E0,5.8E1,1E0,1.1E1,1.7E1,1.8E1,5E0,1.8E1,1.8E1,2.8E1,5E0],"tree_param":{"num_deleted":"0","num_feature":"69","num_nodes":"111","size_leaf_vector":"0"}},{"base_weights":[-1.0425354E-2,-1.4888412E-2,2.110611E-2,-1.985641E-2,1.4097866E-2,3.4986343E-2,-1.2142051E-2,-1.8058246E-2,-9.593788E-2,3.1820573E-2,-1.4775374E-2,-8.573453E-2,4.118567E-2,-1.7230736E-2,1.5703039E-1,-1.9755013E-2,5.8560748E-2,-4.2643E-2,-1.4664158E-1,3.889362E-2,-5.365006E-2,-9.32625E-2,-3.9487888E-4,-1.5440914E-1,-3.746999E-2,4.4674672E-2,-1.3191034E-1,7.369596E-2,-2.2060545E-2,1.3469687E-1,8.730055E-2,-2.1418018E-2,5.486127E-2,-4.6676598E-3,1.2379421E-1,-3.845877E-2,-6.98041E-2,-1.5557206E-1,4.131543E-2,4.0171873E-2,-3.5287198E-1,-6.06186E-2,1.2156744E-1,-9.804255E-2,9.642983E-2,1.3148392E-2,-9.0313755E-2,7.786976E-2,-1.7365317E-1,-7.626807E-2,1.3706207E-1,3.614095E-2,9.6555546E-2,-7.321258E-2,-3.4785706E-1,-1.910095E-2,1.4223771E-1,-1.6629614E-2,-1.7954288E-1,-2.6980722E-2,1.1344221E-1,-7.0401994E-3,1.0369804E-2,3.9180163E-2,-1.158477E-2,-6.868924E-3,9.476006E-2,4.1492693E-2,-4.0529646E-2,-1.0115168E-2,-1.7801154E-2,-1.0435936E-2,-2.2050705E-2,-5.2031633E-2,-2.4828464E-2,1.2242233E-1,-3.653076E-2,1.3644683E-2,-1.1956503E-2,-1.3214816E-2,-1.2571959E-1,-1.990619E-2,9.6724644E-2,-3.2017123E-2,2.9852571E-2,5.6957845E-3,-6.253472E-2,-4.477022E-2,3.01112E-3,-8.632773E-3,-6.913591E-2,4.345895E-2,-3.2914404E-2,1.2011222E-2,-1.8812053E-2,3.735403E-2,-9.547651E-3,2.7615728E-3,-7.4468575E-2,-1.126157E-1,-2.7402842E-2,-1.4388443E-2,1.2700722E-1,-1.059539E-2,4.1411743E-3,-6.850087E-2,3.2792874E-2,9.149042E-3,4.677382E-2],"categories":[],"categories_nodes":[],"categories_segments":[],"categories_sizes":[],"default_left":[0,0,0,0,0,0,0,0,0,0,0,0,0,0,0,0,0,0,0,0,0,0,0,0,0,0,0,0,0,0,0,0,0,0,0,0,0,0,0,0,0,0,0,0,0,0,0,0,0,0,0,0,0,0,0,0,0,0,0,0,0,0,0,0,0,0,0,0,0,0,0,0,0,0,0,0,0,0,0,0,0,0,0,0,0,0,0,0,0,0,0,0,0,0,0,0,0,0,0,0,0,0,0,0,0,0,0,0,0],"id":9,"left_children":[1,3,5,7,9,11,13,15,17,19,21,23,25,27,29,31,33,35,37,39,41,43,45,47,49,51,53,55,57,-1,59,61,63,65,67,69,71,73,75,77,79,81,-1,83,-1,85,87,-1,89,91,-1,93,95,97,99,101,-1,103,105,-1,107,-1,-1,-1,-1,-1,-1,-1,-1,-1,-1,-1,-1,-1,-1,-1,-1,-1,-1,-1,-1,-1,-1,-1,-1,-1,-1,-1,-1,-1,-1,-1,-1,-1,-1,-1,-1,-1,-1,-1,-1,-1,-1,-1,-1,-1,-1,-1,-1],"loss_changes":[2.8871832E0,2.588171E0,1.174461E0,2.0971613E0,1.3462727E0,1.3468878E0,6.4835477E-1,1.9497976E0,9.5034266E-1,9.8748326E-1,1.1297755E0,2.858945E-1,1.0374093E0,3.2177228E-1,4.0868485E-1,1.8209138E0,1.3410755E0,1.7090231E-2,3.1024408E-1,7.6834273E-1,4.242755E-1,3.3876526E-1,1.0326604E0,3.3187008E-1,1.0513626E0,7.380948E-1,4.0550256E-1,1.3839259E0,5.8972025E-1,0E0,9.823428E-2,1.6467104E0,2.2706087E0,9.771611E-1,6.1992836E-1,1.3145685E-2,2.9218942E-4,2.1069908E-1,5.8800566E-1,6.401248E-1,8.375037E-2,2.9380164E-1,0E0,2.747264E-1,0E0,9.573318E-1,6.5780765E-1,0E0,2.8138387E-1,3.8569802E-1,0E0,5.571352E-1,8.510287E-1,4.0616924E-1,1.5141547E-2,4.1616178E-1,0E0,3.8212043E-1,3.4912318E-1,0E0,5.5131614E-2,0E0,0E0,0E0,0E0,0E0,0E0,0E0,0E0,0E0,0E0,0E0,0E0,0E0,0E0,0E0,0E0,0E0,0E0,0E0,0E0,0E0,0E0,0E0,0E0,0E0,0E0,0E0,0E0,0E0,0E0,0E0,0E0,0E0,0E0,0E0,0E0,0E0,0E0,0E0,0E0,0E0,0E0,0E0,0E0,0E0,0E0,0E0,0E0],"parents":[2147483647,0,0,1,1,2,2,3,3,4,4,5,5,6,6,7,7,8,8,9,9,10,10,11,11,12,12,13,13,14,14,15,15,16,16,17,17,18,18,19,19,20,20,21,21,22,22,23,23,24,24,25,25,26,26,27,27,28,28,30,30,31,31,32,32,33,33,34,34,35,35,36,36,37,37,38,38,39,39,40,40,41,41,43,43,45,45,46,46,48,48,49,49,51,51,52,52,53,53,54,54,55,55,57,57,58,58,60,60],"right_children":[2,4,6,8,10,12,14,16,18,20,22,24,26,28,30,32,34,36,38,40,42,44,46,48,50,52,54,56,58,-1,60,62,64,66,68,70,72,74,76,78,80,82,-1,84,-1,86,88,-1,90,92,-1,94,96,98,100,102,-1,104,106,-1,108,-1,-1,-1,-1,-1,-1,-1,-1,-1,-1,-1,-1,-1,-1,-1,-1,-1,-1,-1,-1,-1,-1,-1,-1,-1,-1,-1,-1,-1,-1,-1,-1,-1,-1,-1,-1,-1,-1,-1,-1,-1,-1,-1,-1,-1,-1,-1,-1],"split_conditions":[1E0,1E0,1E0,1E0,1E0,3.4E1,1.411E3,1E0,1E0,1E0,9.1882E4,1.43582E5,1E0,2.5E1,1.573E3,1.848E3,1.71807E5,1E0,1E0,1E0,2.13E2,1E0,1E0,2.7856E4,1E0,1E0,1E0,1E0,1E0,1.3469687E-1,1.755E3,4.386E3,1.98E3,1E0,1E0,4.3E1,2.6E1,1E0,1.88774E5,1E0,1.87098E5,5.41282E5,1.2156744E-1,1E0,9.642983E-2,4.15578E5,2.0946E5,7.786976E-2,1.1E1,1.74201E5,1.3706207E-1,1E0,5.7E1,2.66983E5,5.1E1,1E0,1.4223771E-1,2.00408E5,2.85004E5,-2.6980722E-2,1.14939E5,-7.0401994E-3,1.0369804E-2,3.9180163E-2,-1.158477E-2,-6.868924E-3,9.476006E-2,4.1492693E-2,-4.0529646E-2,-1.0115168E-2,-1.7801154E-2,-1.0435936E-2,-2.2050705E-2,-5.2031633E-2,-2.4828464E-2,1.2242233E-1,-3.653076E-2,1.3644683E-2,-1.1956503E-2,-1.3214816E-2,-1.2571959E-1,-1.990619E-2,9.6724644E-2,-3.2017123E-2,2.9852571E-2,5.6957845E-3,-6.253472E-2,-4.477022E-2,3.01112E-3,-8.632773E-3,-6.913591E-2,4.345895E-2,-3.2914404E-2,1.2011222E-2,-1.8812053E-2,3.735403E-2,-9.547651E-3,2.7615728E-3,-7.4468575E-2,-1.126157E-1,-2.7402842E-2,-1.4388443E-2,1.2700722E-1,-1.059539E-2,4.1411743E-3,-6.850087E-2,3.2792874E-2,9.149042E-3,4.677382E-2],"split_indices":[46,45,58,26,23,3,2,25,34,50,0,0,64,3,2,2,0,10,43,60,2,49,6,0,13,10,23,34,25,0,2,1,2,54,27,3,3,39,0,5,0,0,0,54,0,0,0,0,3,0,0,50,3,0,3,14,0,0,0,0,0,0,0,0,0,0,0,0,0,0,0,0,0,0,0,0,0,0,0,0,0,0,0,0,0,0,0,0,0,0,0,0,0,0,0,0,0,0,0,0,0,0,0,0,0,0,0,0,0],"split_type":[0,0,0,0,0,0,0,0,0,0,0,0,0,0,0,0,0,0,0,0,0,0,0,0,0,0,0,0,0,0,0,0,0,0,0,0,0,0,0,0,0,0,0,0,0,0,0,0,0,0,0,0,0,0,0,0,0,0,0,0,0,0,0,0,0,0,0,0,0,0,0,0,0,0,0,0,0,0,0,0,0,0,0,0,0,0,0,0,0,0,0,0,0,0,0,0,0,0,0,0,0,0,0,0,0,0,0,0,0],"sum_hessian":[2.0513E4,1.797E4,2.543E3,1.5341E4,2.629E3,1.794E3,7.49E2,1.4988E4,3.53E2,1.629E3,1E3,8.7E1,1.707E3,7.28E2,2.1E1,1.4664E4,3.24E2,1.73E2,1.8E2,1.505E3,1.24E2,1.54E2,8.46E2,3.5E1,5.2E1,1.674E3,3.3E1,3.6E1,6.92E2,3E0,1.8E1,1.4345E4,3.19E2,1.65E2,1.59E2,1.52E2,2.1E1,1.72E2,8E0,1.501E3,4E0,1.23E2,1E0,1.53E2,1E0,7.36E2,1.1E2,1E0,3.4E1,4.9E1,3E0,1.439E3,2.35E2,2.7E1,6E0,3E1,6E0,6.7E2,2.2E1,2E0,1.6E1,1.3839E4,5.06E2,1.76E2,1.43E2,1.57E2,8E0,1.51E2,8E0,1.26E2,2.6E1,3E0,1.8E1,1.37E2,3.5E1,2E0,6E0,1.408E3,9.3E1,1E0,3E0,1.22E2,1E0,1.47E2,6E0,7.18E2,1.8E1,6.9E1,4.1E1,1E1,2.4E1,6E0,4.3E1,1.385E3,5.4E1,1.93E2,4.2E1,1.9E1,8E0,5E0,1E0,2.9E1,1E0,4.15E2,2.55E2,1.9E1,3E0,6E0,1E1],"tree_param":{"num_deleted":"0","num_feature":"69","num_nodes":"109","size_leaf_vector":"0"}}]},"name":"gbtree"},"learner_model_param":{"base_score":"5E-1","num_class":"0","num_feature":"69","num_target":"1"},"objective":{"name":"reg:squarederror","reg_loss_param":{"scale_pos_weight":"1"}}},"version":[1,6,2]}